digraph Tree {
node [shape=box] ;
0 [label="X[1] <= 0.5\nentropy = 0.9607\nsamples = 891\nvalue = [549, 342]"] ;
1 [label="X[2] <= 26.2687\nentropy = 0.6992\nsamples = 577\nvalue = [468, 109]"] ;
0 -> 1 [labeldistance=2.5, labelangle=45, headlabel="True"] ;
2 [label="X[0] <= 13.5\nentropy = 0.5578\nsamples = 415\nvalue = [361, 54]"] ;
1 -> 2 ;
3 [label="X[4] <= 1.5\nentropy = 0.5665\nsamples = 15\nvalue = [2, 13]"] ;
2 -> 3 ;
4 [label="entropy = 0.0\nsamples = 1\nvalue = [1, 0]"] ;
3 -> 4 ;
5 [label="X[4] <= 4.5\nentropy = 0.3712\nsamples = 14\nvalue = [1, 13]"] ;
3 -> 5 ;
6 [label="entropy = 0.0\nsamples = 13\nvalue = [0, 13]"] ;
5 -> 6 ;
7 [label="entropy = 0.0\nsamples = 1\nvalue = [1, 0]"] ;
5 -> 7 ;
8 [label="X[0] <= 32.5\nentropy = 0.4769\nsamples = 400\nvalue = [359, 41]"] ;
2 -> 8 ;
9 [label="X[0] <= 30.75\nentropy = 0.5255\nsamples = 295\nvalue = [260, 35]"] ;
8 -> 9 ;
10 [label="X[3] <= 0.5\nentropy = 0.4825\nsamples = 278\nvalue = [249, 29]"] ;
9 -> 10 ;
11 [label="X[2] <= 13.25\nentropy = 0.4042\nsamples = 211\nvalue = [194, 17]"] ;
10 -> 11 ;
12 [label="X[2] <= 7.7979\nentropy = 0.4461\nsamples = 183\nvalue = [166, 17]"] ;
11 -> 12 ;
13 [label="X[0] <= 20.75\nentropy = 0.5499\nsamples = 55\nvalue = [48, 7]"] ;
12 -> 13 ;
14 [label="entropy = 0.0\nsamples = 12\nvalue = [12, 0]"] ;
13 -> 14 ;
15 [label="X[0] <= 27.5\nentropy = 0.6409\nsamples = 43\nvalue = [36, 7]"] ;
13 -> 15 ;
16 [label="X[2] <= 7.0125\nentropy = 0.8281\nsamples = 23\nvalue = [17, 6]"] ;
15 -> 16 ;
17 [label="entropy = 0.0\nsamples = 2\nvalue = [0, 2]"] ;
16 -> 17 ;
18 [label="X[0] <= 26.5\nentropy = 0.7025\nsamples = 21\nvalue = [17, 4]"] ;
16 -> 18 ;
19 [label="X[2] <= 7.7125\nentropy = 0.6098\nsamples = 20\nvalue = [17, 3]"] ;
18 -> 19 ;
20 [label="X[2] <= 7.1958\nentropy = 0.3912\nsamples = 13\nvalue = [12, 1]"] ;
19 -> 20 ;
21 [label="X[2] <= 7.1333\nentropy = 0.7219\nsamples = 5\nvalue = [4, 1]"] ;
20 -> 21 ;
22 [label="entropy = 0.0\nsamples = 4\nvalue = [4, 0]"] ;
21 -> 22 ;
23 [label="entropy = 0.0\nsamples = 1\nvalue = [0, 1]"] ;
21 -> 23 ;
24 [label="entropy = 0.0\nsamples = 8\nvalue = [8, 0]"] ;
20 -> 24 ;
25 [label="X[0] <= 25.5\nentropy = 0.8631\nsamples = 7\nvalue = [5, 2]"] ;
19 -> 25 ;
26 [label="X[0] <= 21.5\nentropy = 0.9183\nsamples = 6\nvalue = [4, 2]"] ;
25 -> 26 ;
27 [label="X[2] <= 7.7854\nentropy = 1.0\nsamples = 2\nvalue = [1, 1]"] ;
26 -> 27 ;
28 [label="entropy = 0.0\nsamples = 1\nvalue = [1, 0]"] ;
27 -> 28 ;
29 [label="entropy = 0.0\nsamples = 1\nvalue = [0, 1]"] ;
27 -> 29 ;
30 [label="X[0] <= 24.5\nentropy = 0.8113\nsamples = 4\nvalue = [3, 1]"] ;
26 -> 30 ;
31 [label="entropy = 0.0\nsamples = 2\nvalue = [2, 0]"] ;
30 -> 31 ;
32 [label="entropy = 1.0\nsamples = 2\nvalue = [1, 1]"] ;
30 -> 32 ;
33 [label="entropy = 0.0\nsamples = 1\nvalue = [1, 0]"] ;
25 -> 33 ;
34 [label="entropy = 0.0\nsamples = 1\nvalue = [0, 1]"] ;
18 -> 34 ;
35 [label="X[2] <= 7.6625\nentropy = 0.2864\nsamples = 20\nvalue = [19, 1]"] ;
15 -> 35 ;
36 [label="entropy = 0.0\nsamples = 16\nvalue = [16, 0]"] ;
35 -> 36 ;
37 [label="X[2] <= 7.7854\nentropy = 0.8113\nsamples = 4\nvalue = [3, 1]"] ;
35 -> 37 ;
38 [label="X[0] <= 28.5\nentropy = 0.9183\nsamples = 3\nvalue = [2, 1]"] ;
37 -> 38 ;
39 [label="entropy = 1.0\nsamples = 2\nvalue = [1, 1]"] ;
38 -> 39 ;
40 [label="entropy = 0.0\nsamples = 1\nvalue = [1, 0]"] ;
38 -> 40 ;
41 [label="entropy = 0.0\nsamples = 1\nvalue = [1, 0]"] ;
37 -> 41 ;
42 [label="X[2] <= 7.9104\nentropy = 0.3955\nsamples = 128\nvalue = [118, 10]"] ;
12 -> 42 ;
43 [label="entropy = 0.0\nsamples = 37\nvalue = [37, 0]"] ;
42 -> 43 ;
44 [label="X[0] <= 20.5\nentropy = 0.4996\nsamples = 91\nvalue = [81, 10]"] ;
42 -> 44 ;
45 [label="X[2] <= 8.1042\nentropy = 0.6913\nsamples = 27\nvalue = [22, 5]"] ;
44 -> 45 ;
46 [label="X[4] <= 1.5\nentropy = 1.0\nsamples = 8\nvalue = [4, 4]"] ;
45 -> 46 ;
47 [label="X[0] <= 19.5\nentropy = 0.9852\nsamples = 7\nvalue = [4, 3]"] ;
46 -> 47 ;
48 [label="X[0] <= 17.0\nentropy = 0.971\nsamples = 5\nvalue = [2, 3]"] ;
47 -> 48 ;
49 [label="entropy = 1.0\nsamples = 2\nvalue = [1, 1]"] ;
48 -> 49 ;
50 [label="X[0] <= 18.5\nentropy = 0.9183\nsamples = 3\nvalue = [1, 2]"] ;
48 -> 50 ;
51 [label="entropy = 0.0\nsamples = 1\nvalue = [0, 1]"] ;
50 -> 51 ;
52 [label="entropy = 1.0\nsamples = 2\nvalue = [1, 1]"] ;
50 -> 52 ;
53 [label="entropy = 0.0\nsamples = 2\nvalue = [2, 0]"] ;
47 -> 53 ;
54 [label="entropy = 0.0\nsamples = 1\nvalue = [0, 1]"] ;
46 -> 54 ;
55 [label="X[2] <= 10.3354\nentropy = 0.2975\nsamples = 19\nvalue = [18, 1]"] ;
45 -> 55 ;
56 [label="entropy = 0.0\nsamples = 12\nvalue = [12, 0]"] ;
55 -> 56 ;
57 [label="X[2] <= 11.0\nentropy = 0.5917\nsamples = 7\nvalue = [6, 1]"] ;
55 -> 57 ;
58 [label="X[0] <= 17.5\nentropy = 0.9183\nsamples = 3\nvalue = [2, 1]"] ;
57 -> 58 ;
59 [label="entropy = 0.0\nsamples = 1\nvalue = [1, 0]"] ;
58 -> 59 ;
60 [label="entropy = 1.0\nsamples = 2\nvalue = [1, 1]"] ;
58 -> 60 ;
61 [label="entropy = 0.0\nsamples = 4\nvalue = [4, 0]"] ;
57 -> 61 ;
62 [label="X[0] <= 26.5\nentropy = 0.3955\nsamples = 64\nvalue = [59, 5]"] ;
44 -> 62 ;
63 [label="entropy = 0.0\nsamples = 28\nvalue = [28, 0]"] ;
62 -> 63 ;
64 [label="X[2] <= 8.0813\nentropy = 0.5813\nsamples = 36\nvalue = [31, 5]"] ;
62 -> 64 ;
65 [label="entropy = 0.0\nsamples = 17\nvalue = [17, 0]"] ;
64 -> 65 ;
66 [label="X[2] <= 10.0\nentropy = 0.8315\nsamples = 19\nvalue = [14, 5]"] ;
64 -> 66 ;
67 [label="X[0] <= 27.5\nentropy = 0.9911\nsamples = 9\nvalue = [5, 4]"] ;
66 -> 67 ;
68 [label="entropy = 0.0\nsamples = 1\nvalue = [0, 1]"] ;
67 -> 68 ;
69 [label="X[2] <= 8.3875\nentropy = 0.9544\nsamples = 8\nvalue = [5, 3]"] ;
67 -> 69 ;
70 [label="entropy = 0.0\nsamples = 1\nvalue = [0, 1]"] ;
69 -> 70 ;
71 [label="X[0] <= 28.5\nentropy = 0.8631\nsamples = 7\nvalue = [5, 2]"] ;
69 -> 71 ;
72 [label="entropy = 0.0\nsamples = 4\nvalue = [4, 0]"] ;
71 -> 72 ;
73 [label="X[2] <= 9.4916\nentropy = 0.9183\nsamples = 3\nvalue = [1, 2]"] ;
71 -> 73 ;
74 [label="entropy = 0.0\nsamples = 1\nvalue = [1, 0]"] ;
73 -> 74 ;
75 [label="entropy = 0.0\nsamples = 2\nvalue = [0, 2]"] ;
73 -> 75 ;
76 [label="X[0] <= 28.5\nentropy = 0.469\nsamples = 10\nvalue = [9, 1]"] ;
66 -> 76 ;
77 [label="X[0] <= 27.5\nentropy = 0.7219\nsamples = 5\nvalue = [4, 1]"] ;
76 -> 77 ;
78 [label="entropy = 0.0\nsamples = 2\nvalue = [2, 0]"] ;
77 -> 78 ;
79 [label="X[2] <= 11.75\nentropy = 0.9183\nsamples = 3\nvalue = [2, 1]"] ;
77 -> 79 ;
80 [label="entropy = 0.0\nsamples = 1\nvalue = [1, 0]"] ;
79 -> 80 ;
81 [label="entropy = 1.0\nsamples = 2\nvalue = [1, 1]"] ;
79 -> 81 ;
82 [label="entropy = 0.0\nsamples = 5\nvalue = [5, 0]"] ;
76 -> 82 ;
83 [label="entropy = 0.0\nsamples = 28\nvalue = [28, 0]"] ;
11 -> 83 ;
84 [label="X[4] <= 2.5\nentropy = 0.6781\nsamples = 67\nvalue = [55, 12]"] ;
10 -> 84 ;
85 [label="X[0] <= 28.75\nentropy = 0.5665\nsamples = 60\nvalue = [52, 8]"] ;
84 -> 85 ;
86 [label="X[3] <= 1.5\nentropy = 0.4972\nsamples = 55\nvalue = [49, 6]"] ;
85 -> 86 ;
87 [label="X[2] <= 16.9188\nentropy = 0.6769\nsamples = 28\nvalue = [23, 5]"] ;
86 -> 87 ;
88 [label="X[0] <= 22.5\nentropy = 0.6052\nsamples = 27\nvalue = [23, 4]"] ;
87 -> 88 ;
89 [label="X[2] <= 5.6187\nentropy = 1.0\nsamples = 4\nvalue = [2, 2]"] ;
88 -> 89 ;
90 [label="entropy = 0.0\nsamples = 1\nvalue = [1, 0]"] ;
89 -> 90 ;
91 [label="X[2] <= 7.2271\nentropy = 0.9183\nsamples = 3\nvalue = [1, 2]"] ;
89 -> 91 ;
92 [label="entropy = 0.0\nsamples = 1\nvalue = [0, 1]"] ;
91 -> 92 ;
93 [label="X[0] <= 21.0\nentropy = 1.0\nsamples = 2\nvalue = [1, 1]"] ;
91 -> 93 ;
94 [label="entropy = 0.0\nsamples = 1\nvalue = [0, 1]"] ;
93 -> 94 ;
95 [label="entropy = 0.0\nsamples = 1\nvalue = [1, 0]"] ;
93 -> 95 ;
96 [label="X[2] <= 7.2271\nentropy = 0.4262\nsamples = 23\nvalue = [21, 2]"] ;
88 -> 96 ;
97 [label="entropy = 0.0\nsamples = 6\nvalue = [6, 0]"] ;
96 -> 97 ;
98 [label="X[2] <= 14.1583\nentropy = 0.5226\nsamples = 17\nvalue = [15, 2]"] ;
96 -> 98 ;
99 [label="X[2] <= 11.2875\nentropy = 0.65\nsamples = 12\nvalue = [10, 2]"] ;
98 -> 99 ;
100 [label="X[2] <= 7.5625\nentropy = 0.4395\nsamples = 11\nvalue = [10, 1]"] ;
99 -> 100 ;
101 [label="X[0] <= 25.75\nentropy = 0.5436\nsamples = 8\nvalue = [7, 1]"] ;
100 -> 101 ;
102 [label="entropy = 0.0\nsamples = 1\nvalue = [1, 0]"] ;
101 -> 102 ;
103 [label="X[0] <= 28.25\nentropy = 0.5917\nsamples = 7\nvalue = [6, 1]"] ;
101 -> 103 ;
104 [label="entropy = 0.65\nsamples = 6\nvalue = [5, 1]"] ;
103 -> 104 ;
105 [label="entropy = 0.0\nsamples = 1\nvalue = [1, 0]"] ;
103 -> 105 ;
106 [label="entropy = 0.0\nsamples = 3\nvalue = [3, 0]"] ;
100 -> 106 ;
107 [label="entropy = 0.0\nsamples = 1\nvalue = [0, 1]"] ;
99 -> 107 ;
108 [label="entropy = 0.0\nsamples = 5\nvalue = [5, 0]"] ;
98 -> 108 ;
109 [label="entropy = 0.0\nsamples = 1\nvalue = [0, 1]"] ;
87 -> 109 ;
110 [label="X[2] <= 7.7459\nentropy = 0.2285\nsamples = 27\nvalue = [26, 1]"] ;
86 -> 110 ;
111 [label="entropy = 0.0\nsamples = 9\nvalue = [9, 0]"] ;
110 -> 111 ;
112 [label="X[2] <= 7.7896\nentropy = 0.3095\nsamples = 18\nvalue = [17, 1]"] ;
110 -> 112 ;
113 [label="X[4] <= 1.5\nentropy = 0.4395\nsamples = 11\nvalue = [10, 1]"] ;
112 -> 113 ;
114 [label="entropy = 0.469\nsamples = 10\nvalue = [9, 1]"] ;
113 -> 114 ;
115 [label="entropy = 0.0\nsamples = 1\nvalue = [1, 0]"] ;
113 -> 115 ;
116 [label="entropy = 0.0\nsamples = 7\nvalue = [7, 0]"] ;
112 -> 116 ;
117 [label="X[0] <= 29.5\nentropy = 0.971\nsamples = 5\nvalue = [3, 2]"] ;
85 -> 117 ;
118 [label="entropy = 0.0\nsamples = 2\nvalue = [0, 2]"] ;
117 -> 118 ;
119 [label="entropy = 0.0\nsamples = 3\nvalue = [3, 0]"] ;
117 -> 119 ;
120 [label="X[0] <= 18.5\nentropy = 0.9852\nsamples = 7\nvalue = [3, 4]"] ;
84 -> 120 ;
121 [label="entropy = 0.0\nsamples = 2\nvalue = [2, 0]"] ;
120 -> 121 ;
122 [label="X[2] <= 18.7104\nentropy = 0.7219\nsamples = 5\nvalue = [1, 4]"] ;
120 -> 122 ;
123 [label="entropy = 0.0\nsamples = 3\nvalue = [0, 3]"] ;
122 -> 123 ;
124 [label="X[2] <= 22.4646\nentropy = 1.0\nsamples = 2\nvalue = [1, 1]"] ;
122 -> 124 ;
125 [label="entropy = 0.0\nsamples = 1\nvalue = [1, 0]"] ;
124 -> 125 ;
126 [label="entropy = 0.0\nsamples = 1\nvalue = [0, 1]"] ;
124 -> 126 ;
127 [label="X[2] <= 7.8146\nentropy = 0.9367\nsamples = 17\nvalue = [11, 6]"] ;
9 -> 127 ;
128 [label="entropy = 0.0\nsamples = 3\nvalue = [3, 0]"] ;
127 -> 128 ;
129 [label="X[2] <= 7.875\nentropy = 0.9852\nsamples = 14\nvalue = [8, 6]"] ;
127 -> 129 ;
130 [label="entropy = 0.0\nsamples = 1\nvalue = [0, 1]"] ;
129 -> 130 ;
131 [label="X[4] <= 2.5\nentropy = 0.9612\nsamples = 13\nvalue = [8, 5]"] ;
129 -> 131 ;
132 [label="X[2] <= 20.925\nentropy = 0.9799\nsamples = 12\nvalue = [7, 5]"] ;
131 -> 132 ;
133 [label="X[0] <= 31.5\nentropy = 0.9457\nsamples = 11\nvalue = [7, 4]"] ;
132 -> 133 ;
134 [label="X[2] <= 9.2125\nentropy = 0.9183\nsamples = 3\nvalue = [1, 2]"] ;
133 -> 134 ;
135 [label="entropy = 0.0\nsamples = 1\nvalue = [0, 1]"] ;
134 -> 135 ;
136 [label="X[2] <= 11.75\nentropy = 1.0\nsamples = 2\nvalue = [1, 1]"] ;
134 -> 136 ;
137 [label="entropy = 0.0\nsamples = 1\nvalue = [1, 0]"] ;
136 -> 137 ;
138 [label="entropy = 0.0\nsamples = 1\nvalue = [0, 1]"] ;
136 -> 138 ;
139 [label="X[2] <= 8.2063\nentropy = 0.8113\nsamples = 8\nvalue = [6, 2]"] ;
133 -> 139 ;
140 [label="X[2] <= 7.9875\nentropy = 0.971\nsamples = 5\nvalue = [3, 2]"] ;
139 -> 140 ;
141 [label="X[2] <= 7.9104\nentropy = 0.8113\nsamples = 4\nvalue = [3, 1]"] ;
140 -> 141 ;
142 [label="entropy = 0.0\nsamples = 1\nvalue = [1, 0]"] ;
141 -> 142 ;
143 [label="entropy = 0.9183\nsamples = 3\nvalue = [2, 1]"] ;
141 -> 143 ;
144 [label="entropy = 0.0\nsamples = 1\nvalue = [0, 1]"] ;
140 -> 144 ;
145 [label="entropy = 0.0\nsamples = 3\nvalue = [3, 0]"] ;
139 -> 145 ;
146 [label="entropy = 0.0\nsamples = 1\nvalue = [0, 1]"] ;
132 -> 146 ;
147 [label="entropy = 0.0\nsamples = 1\nvalue = [1, 0]"] ;
131 -> 147 ;
148 [label="X[2] <= 7.9104\nentropy = 0.316\nsamples = 105\nvalue = [99, 6]"] ;
8 -> 148 ;
149 [label="entropy = 0.0\nsamples = 36\nvalue = [36, 0]"] ;
148 -> 149 ;
150 [label="X[2] <= 13.25\nentropy = 0.4262\nsamples = 69\nvalue = [63, 6]"] ;
148 -> 150 ;
151 [label="X[2] <= 7.9875\nentropy = 0.5917\nsamples = 42\nvalue = [36, 6]"] ;
150 -> 151 ;
152 [label="X[0] <= 38.0\nentropy = 1.0\nsamples = 4\nvalue = [2, 2]"] ;
151 -> 152 ;
153 [label="entropy = 0.0\nsamples = 1\nvalue = [1, 0]"] ;
152 -> 153 ;
154 [label="X[0] <= 41.5\nentropy = 0.9183\nsamples = 3\nvalue = [1, 2]"] ;
152 -> 154 ;
155 [label="entropy = 1.0\nsamples = 2\nvalue = [1, 1]"] ;
154 -> 155 ;
156 [label="entropy = 0.0\nsamples = 1\nvalue = [0, 1]"] ;
154 -> 156 ;
157 [label="X[0] <= 59.5\nentropy = 0.4855\nsamples = 38\nvalue = [34, 4]"] ;
151 -> 157 ;
158 [label="X[0] <= 46.0\nentropy = 0.422\nsamples = 35\nvalue = [32, 3]"] ;
157 -> 158 ;
159 [label="X[0] <= 44.5\nentropy = 0.5159\nsamples = 26\nvalue = [23, 3]"] ;
158 -> 159 ;
160 [label="X[2] <= 12.9375\nentropy = 0.4022\nsamples = 25\nvalue = [23, 2]"] ;
159 -> 160 ;
161 [label="entropy = 0.0\nsamples = 17\nvalue = [17, 0]"] ;
160 -> 161 ;
162 [label="X[0] <= 40.5\nentropy = 0.8113\nsamples = 8\nvalue = [6, 2]"] ;
160 -> 162 ;
163 [label="X[0] <= 35.0\nentropy = 0.65\nsamples = 6\nvalue = [5, 1]"] ;
162 -> 163 ;
164 [label="entropy = 0.9183\nsamples = 3\nvalue = [2, 1]"] ;
163 -> 164 ;
165 [label="entropy = 0.0\nsamples = 3\nvalue = [3, 0]"] ;
163 -> 165 ;
166 [label="entropy = 1.0\nsamples = 2\nvalue = [1, 1]"] ;
162 -> 166 ;
167 [label="entropy = 0.0\nsamples = 1\nvalue = [0, 1]"] ;
159 -> 167 ;
168 [label="entropy = 0.0\nsamples = 9\nvalue = [9, 0]"] ;
158 -> 168 ;
169 [label="X[0] <= 64.0\nentropy = 0.9183\nsamples = 3\nvalue = [2, 1]"] ;
157 -> 169 ;
170 [label="entropy = 0.0\nsamples = 1\nvalue = [0, 1]"] ;
169 -> 170 ;
171 [label="entropy = 0.0\nsamples = 2\nvalue = [2, 0]"] ;
169 -> 171 ;
172 [label="entropy = 0.0\nsamples = 27\nvalue = [27, 0]"] ;
150 -> 172 ;
173 [label="X[4] <= 4.5\nentropy = 0.9243\nsamples = 162\nvalue = [107, 55]"] ;
1 -> 173 ;
174 [label="X[0] <= 17.5\nentropy = 0.971\nsamples = 135\nvalue = [81, 54]"] ;
173 -> 174 ;
175 [label="entropy = 0.0\nsamples = 8\nvalue = [0, 8]"] ;
174 -> 175 ;
176 [label="X[2] <= 26.4688\nentropy = 0.9445\nsamples = 127\nvalue = [81, 46]"] ;
174 -> 176 ;
177 [label="entropy = 0.0\nsamples = 4\nvalue = [0, 4]"] ;
176 -> 177 ;
178 [label="X[0] <= 22.5\nentropy = 0.9262\nsamples = 123\nvalue = [81, 42]"] ;
176 -> 178 ;
179 [label="entropy = 0.0\nsamples = 8\nvalue = [8, 0]"] ;
178 -> 179 ;
180 [label="X[0] <= 53.0\nentropy = 0.9469\nsamples = 115\nvalue = [73, 42]"] ;
178 -> 180 ;
181 [label="X[2] <= 26.775\nentropy = 0.979\nsamples = 94\nvalue = [55, 39]"] ;
180 -> 181 ;
182 [label="X[0] <= 46.5\nentropy = 0.7642\nsamples = 9\nvalue = [2, 7]"] ;
181 -> 182 ;
183 [label="X[3] <= 0.5\nentropy = 0.8631\nsamples = 7\nvalue = [2, 5]"] ;
182 -> 183 ;
184 [label="X[0] <= 39.5\nentropy = 0.9183\nsamples = 6\nvalue = [2, 4]"] ;
183 -> 184 ;
185 [label="X[0] <= 31.0\nentropy = 0.8113\nsamples = 4\nvalue = [1, 3]"] ;
184 -> 185 ;
186 [label="entropy = 0.9183\nsamples = 3\nvalue = [1, 2]"] ;
185 -> 186 ;
187 [label="entropy = 0.0\nsamples = 1\nvalue = [0, 1]"] ;
185 -> 187 ;
188 [label="entropy = 1.0\nsamples = 2\nvalue = [1, 1]"] ;
184 -> 188 ;
189 [label="entropy = 0.0\nsamples = 1\nvalue = [0, 1]"] ;
183 -> 189 ;
190 [label="entropy = 0.0\nsamples = 2\nvalue = [0, 2]"] ;
182 -> 190 ;
191 [label="X[2] <= 29.1\nentropy = 0.9555\nsamples = 85\nvalue = [53, 32]"] ;
181 -> 191 ;
192 [label="entropy = 0.0\nsamples = 8\nvalue = [8, 0]"] ;
191 -> 192 ;
193 [label="X[2] <= 30.5979\nentropy = 0.9793\nsamples = 77\nvalue = [45, 32]"] ;
191 -> 193 ;
194 [label="X[4] <= 1.5\nentropy = 0.8813\nsamples = 10\nvalue = [3, 7]"] ;
193 -> 194 ;
195 [label="X[0] <= 28.5\nentropy = 0.5436\nsamples = 8\nvalue = [1, 7]"] ;
194 -> 195 ;
196 [label="entropy = 0.0\nsamples = 5\nvalue = [0, 5]"] ;
195 -> 196 ;
197 [label="X[0] <= 30.5\nentropy = 0.9183\nsamples = 3\nvalue = [1, 2]"] ;
195 -> 197 ;
198 [label="entropy = 0.0\nsamples = 1\nvalue = [1, 0]"] ;
197 -> 198 ;
199 [label="entropy = 0.0\nsamples = 2\nvalue = [0, 2]"] ;
197 -> 199 ;
200 [label="entropy = 0.0\nsamples = 2\nvalue = [2, 0]"] ;
194 -> 200 ;
201 [label="X[2] <= 52.2771\nentropy = 0.953\nsamples = 67\nvalue = [42, 25]"] ;
193 -> 201 ;
202 [label="X[0] <= 47.5\nentropy = 0.6666\nsamples = 23\nvalue = [19, 4]"] ;
201 -> 202 ;
203 [label="X[2] <= 36.2521\nentropy = 0.5746\nsamples = 22\nvalue = [19, 3]"] ;
202 -> 203 ;
204 [label="X[2] <= 35.25\nentropy = 0.9183\nsamples = 9\nvalue = [6, 3]"] ;
203 -> 204 ;
205 [label="X[3] <= 0.5\nentropy = 0.65\nsamples = 6\nvalue = [5, 1]"] ;
204 -> 205 ;
206 [label="entropy = 0.0\nsamples = 4\nvalue = [4, 0]"] ;
205 -> 206 ;
207 [label="X[0] <= 34.0\nentropy = 1.0\nsamples = 2\nvalue = [1, 1]"] ;
205 -> 207 ;
208 [label="entropy = 0.0\nsamples = 1\nvalue = [1, 0]"] ;
207 -> 208 ;
209 [label="entropy = 0.0\nsamples = 1\nvalue = [0, 1]"] ;
207 -> 209 ;
210 [label="X[0] <= 36.5\nentropy = 0.9183\nsamples = 3\nvalue = [1, 2]"] ;
204 -> 210 ;
211 [label="entropy = 0.0\nsamples = 2\nvalue = [0, 2]"] ;
210 -> 211 ;
212 [label="entropy = 0.0\nsamples = 1\nvalue = [1, 0]"] ;
210 -> 212 ;
213 [label="entropy = 0.0\nsamples = 13\nvalue = [13, 0]"] ;
203 -> 213 ;
214 [label="entropy = 0.0\nsamples = 1\nvalue = [0, 1]"] ;
202 -> 214 ;
215 [label="X[2] <= 59.0875\nentropy = 0.9985\nsamples = 44\nvalue = [23, 21]"] ;
201 -> 215 ;
216 [label="X[0] <= 49.5\nentropy = 0.8366\nsamples = 15\nvalue = [4, 11]"] ;
215 -> 216 ;
217 [label="X[0] <= 27.5\nentropy = 0.7496\nsamples = 14\nvalue = [3, 11]"] ;
216 -> 217 ;
218 [label="entropy = 0.0\nsamples = 3\nvalue = [0, 3]"] ;
217 -> 218 ;
219 [label="X[0] <= 29.5\nentropy = 0.8454\nsamples = 11\nvalue = [3, 8]"] ;
217 -> 219 ;
220 [label="entropy = 1.0\nsamples = 4\nvalue = [2, 2]"] ;
219 -> 220 ;
221 [label="X[2] <= 54.7979\nentropy = 0.5917\nsamples = 7\nvalue = [1, 6]"] ;
219 -> 221 ;
222 [label="X[2] <= 52.8271\nentropy = 0.9183\nsamples = 3\nvalue = [1, 2]"] ;
221 -> 222 ;
223 [label="entropy = 0.0\nsamples = 2\nvalue = [0, 2]"] ;
222 -> 223 ;
224 [label="entropy = 0.0\nsamples = 1\nvalue = [1, 0]"] ;
222 -> 224 ;
225 [label="entropy = 0.0\nsamples = 4\nvalue = [0, 4]"] ;
221 -> 225 ;
226 [label="entropy = 0.0\nsamples = 1\nvalue = [1, 0]"] ;
216 -> 226 ;
227 [label="X[2] <= 379.925\nentropy = 0.9294\nsamples = 29\nvalue = [19, 10]"] ;
215 -> 227 ;
228 [label="X[2] <= 143.5562\nentropy = 0.8767\nsamples = 27\nvalue = [19, 8]"] ;
227 -> 228 ;
229 [label="X[2] <= 115.4417\nentropy = 0.9457\nsamples = 22\nvalue = [14, 8]"] ;
228 -> 229 ;
230 [label="X[4] <= 2.5\nentropy = 0.8813\nsamples = 20\nvalue = [14, 6]"] ;
229 -> 230 ;
231 [label="X[2] <= 86.2896\nentropy = 0.971\nsamples = 15\nvalue = [9, 6]"] ;
230 -> 231 ;
232 [label="X[2] <= 77.7896\nentropy = 0.8454\nsamples = 11\nvalue = [8, 3]"] ;
231 -> 232 ;
233 [label="X[2] <= 62.3688\nentropy = 1.0\nsamples = 6\nvalue = [3, 3]"] ;
232 -> 233 ;
234 [label="entropy = 0.0\nsamples = 2\nvalue = [2, 0]"] ;
233 -> 234 ;
235 [label="X[3] <= 0.5\nentropy = 0.8113\nsamples = 4\nvalue = [1, 3]"] ;
233 -> 235 ;
236 [label="entropy = 0.0\nsamples = 1\nvalue = [1, 0]"] ;
235 -> 236 ;
237 [label="entropy = 0.0\nsamples = 3\nvalue = [0, 3]"] ;
235 -> 237 ;
238 [label="entropy = 0.0\nsamples = 5\nvalue = [5, 0]"] ;
232 -> 238 ;
239 [label="X[0] <= 49.5\nentropy = 0.8113\nsamples = 4\nvalue = [1, 3]"] ;
231 -> 239 ;
240 [label="entropy = 0.0\nsamples = 3\nvalue = [0, 3]"] ;
239 -> 240 ;
241 [label="entropy = 0.0\nsamples = 1\nvalue = [1, 0]"] ;
239 -> 241 ;
242 [label="entropy = 0.0\nsamples = 5\nvalue = [5, 0]"] ;
230 -> 242 ;
243 [label="entropy = 0.0\nsamples = 2\nvalue = [0, 2]"] ;
229 -> 243 ;
244 [label="entropy = 0.0\nsamples = 5\nvalue = [5, 0]"] ;
228 -> 244 ;
245 [label="entropy = 0.0\nsamples = 2\nvalue = [0, 2]"] ;
227 -> 245 ;
246 [label="X[0] <= 75.5\nentropy = 0.5917\nsamples = 21\nvalue = [18, 3]"] ;
180 -> 246 ;
247 [label="X[3] <= 0.5\nentropy = 0.469\nsamples = 20\nvalue = [18, 2]"] ;
246 -> 247 ;
248 [label="entropy = 0.0\nsamples = 12\nvalue = [12, 0]"] ;
247 -> 248 ;
249 [label="X[0] <= 62.5\nentropy = 0.8113\nsamples = 8\nvalue = [6, 2]"] ;
247 -> 249 ;
250 [label="X[2] <= 33.0979\nentropy = 0.971\nsamples = 5\nvalue = [3, 2]"] ;
249 -> 250 ;
251 [label="entropy = 0.0\nsamples = 2\nvalue = [2, 0]"] ;
250 -> 251 ;
252 [label="X[2] <= 96.2375\nentropy = 0.9183\nsamples = 3\nvalue = [1, 2]"] ;
250 -> 252 ;
253 [label="entropy = 0.0\nsamples = 2\nvalue = [0, 2]"] ;
252 -> 253 ;
254 [label="entropy = 0.0\nsamples = 1\nvalue = [1, 0]"] ;
252 -> 254 ;
255 [label="entropy = 0.0\nsamples = 3\nvalue = [3, 0]"] ;
249 -> 255 ;
256 [label="entropy = 0.0\nsamples = 1\nvalue = [0, 1]"] ;
246 -> 256 ;
257 [label="X[0] <= 3.5\nentropy = 0.2285\nsamples = 27\nvalue = [26, 1]"] ;
173 -> 257 ;
258 [label="X[0] <= 2.5\nentropy = 0.7219\nsamples = 5\nvalue = [4, 1]"] ;
257 -> 258 ;
259 [label="entropy = 0.0\nsamples = 4\nvalue = [4, 0]"] ;
258 -> 259 ;
260 [label="entropy = 0.0\nsamples = 1\nvalue = [0, 1]"] ;
258 -> 260 ;
261 [label="entropy = 0.0\nsamples = 22\nvalue = [22, 0]"] ;
257 -> 261 ;
262 [label="X[4] <= 4.5\nentropy = 0.8237\nsamples = 314\nvalue = [81, 233]"] ;
0 -> 262 [labeldistance=2.5, labelangle=-45, headlabel="False"] ;
263 [label="X[2] <= 25.0396\nentropy = 0.7276\nsamples = 281\nvalue = [57, 224]"] ;
262 -> 263 ;
264 [label="X[2] <= 10.4812\nentropy = 0.914\nsamples = 158\nvalue = [52, 106]"] ;
263 -> 264 ;
265 [label="X[2] <= 8.0396\nentropy = 0.9861\nsamples = 65\nvalue = [28, 37]"] ;
264 -> 265 ;
266 [label="X[0] <= 29.25\nentropy = 0.896\nsamples = 48\nvalue = [15, 33]"] ;
265 -> 266 ;
267 [label="X[3] <= 0.5\nentropy = 0.8366\nsamples = 45\nvalue = [12, 33]"] ;
266 -> 267 ;
268 [label="X[0] <= 27.5\nentropy = 0.9774\nsamples = 17\nvalue = [7, 10]"] ;
267 -> 268 ;
269 [label="X[2] <= 7.7625\nentropy = 0.9183\nsamples = 15\nvalue = [5, 10]"] ;
268 -> 269 ;
270 [label="entropy = 0.0\nsamples = 5\nvalue = [0, 5]"] ;
269 -> 270 ;
271 [label="X[0] <= 25.5\nentropy = 1.0\nsamples = 10\nvalue = [5, 5]"] ;
269 -> 271 ;
272 [label="X[0] <= 22.5\nentropy = 0.8631\nsamples = 7\nvalue = [5, 2]"] ;
271 -> 272 ;
273 [label="X[0] <= 18.5\nentropy = 1.0\nsamples = 4\nvalue = [2, 2]"] ;
272 -> 273 ;
274 [label="entropy = 0.0\nsamples = 2\nvalue = [2, 0]"] ;
273 -> 274 ;
275 [label="entropy = 0.0\nsamples = 2\nvalue = [0, 2]"] ;
273 -> 275 ;
276 [label="entropy = 0.0\nsamples = 3\nvalue = [3, 0]"] ;
272 -> 276 ;
277 [label="entropy = 0.0\nsamples = 3\nvalue = [0, 3]"] ;
271 -> 277 ;
278 [label="entropy = 0.0\nsamples = 2\nvalue = [2, 0]"] ;
268 -> 278 ;
279 [label="X[2] <= 6.9875\nentropy = 0.6769\nsamples = 28\nvalue = [5, 23]"] ;
267 -> 279 ;
280 [label="entropy = 0.0\nsamples = 1\nvalue = [1, 0]"] ;
279 -> 280 ;
281 [label="X[4] <= 2.0\nentropy = 0.6052\nsamples = 27\nvalue = [4, 23]"] ;
279 -> 281 ;
282 [label="X[2] <= 7.7688\nentropy = 0.5159\nsamples = 26\nvalue = [3, 23]"] ;
281 -> 282 ;
283 [label="X[2] <= 7.4292\nentropy = 0.6292\nsamples = 19\nvalue = [3, 16]"] ;
282 -> 283 ;
284 [label="entropy = 0.0\nsamples = 4\nvalue = [0, 4]"] ;
283 -> 284 ;
285 [label="X[2] <= 7.6813\nentropy = 0.7219\nsamples = 15\nvalue = [3, 12]"] ;
283 -> 285 ;
286 [label="entropy = 0.0\nsamples = 1\nvalue = [1, 0]"] ;
285 -> 286 ;
287 [label="X[2] <= 7.7438\nentropy = 0.5917\nsamples = 14\nvalue = [2, 12]"] ;
285 -> 287 ;
288 [label="entropy = 0.0\nsamples = 3\nvalue = [0, 3]"] ;
287 -> 288 ;
289 [label="X[0] <= 21.5\nentropy = 0.684\nsamples = 11\nvalue = [2, 9]"] ;
287 -> 289 ;
290 [label="X[0] <= 18.5\nentropy = 1.0\nsamples = 2\nvalue = [1, 1]"] ;
289 -> 290 ;
291 [label="entropy = 0.0\nsamples = 1\nvalue = [0, 1]"] ;
290 -> 291 ;
292 [label="entropy = 0.0\nsamples = 1\nvalue = [1, 0]"] ;
290 -> 292 ;
293 [label="X[0] <= 25.0\nentropy = 0.5033\nsamples = 9\nvalue = [1, 8]"] ;
289 -> 293 ;
294 [label="entropy = 0.0\nsamples = 1\nvalue = [0, 1]"] ;
293 -> 294 ;
295 [label="entropy = 0.5436\nsamples = 8\nvalue = [1, 7]"] ;
293 -> 295 ;
296 [label="entropy = 0.0\nsamples = 7\nvalue = [0, 7]"] ;
282 -> 296 ;
297 [label="entropy = 0.0\nsamples = 1\nvalue = [1, 0]"] ;
281 -> 297 ;
298 [label="entropy = 0.0\nsamples = 3\nvalue = [3, 0]"] ;
266 -> 298 ;
299 [label="X[2] <= 8.6729\nentropy = 0.7871\nsamples = 17\nvalue = [13, 4]"] ;
265 -> 299 ;
300 [label="entropy = 0.0\nsamples = 5\nvalue = [5, 0]"] ;
299 -> 300 ;
301 [label="X[2] <= 8.7667\nentropy = 0.9183\nsamples = 12\nvalue = [8, 4]"] ;
299 -> 301 ;
302 [label="entropy = 0.0\nsamples = 1\nvalue = [0, 1]"] ;
301 -> 302 ;
303 [label="X[0] <= 19.0\nentropy = 0.8454\nsamples = 11\nvalue = [8, 3]"] ;
301 -> 303 ;
304 [label="X[2] <= 10.1521\nentropy = 0.9183\nsamples = 3\nvalue = [1, 2]"] ;
303 -> 304 ;
305 [label="entropy = 0.0\nsamples = 2\nvalue = [0, 2]"] ;
304 -> 305 ;
306 [label="entropy = 0.0\nsamples = 1\nvalue = [1, 0]"] ;
304 -> 306 ;
307 [label="X[0] <= 51.5\nentropy = 0.5436\nsamples = 8\nvalue = [7, 1]"] ;
303 -> 307 ;
308 [label="entropy = 0.0\nsamples = 7\nvalue = [7, 0]"] ;
307 -> 308 ;
309 [label="entropy = 0.0\nsamples = 1\nvalue = [0, 1]"] ;
307 -> 309 ;
310 [label="X[2] <= 14.1292\nentropy = 0.8238\nsamples = 93\nvalue = [24, 69]"] ;
264 -> 310 ;
311 [label="X[0] <= 53.5\nentropy = 0.4855\nsamples = 38\nvalue = [4, 34]"] ;
310 -> 311 ;
312 [label="X[0] <= 21.5\nentropy = 0.406\nsamples = 37\nvalue = [3, 34]"] ;
311 -> 312 ;
313 [label="entropy = 0.0\nsamples = 9\nvalue = [0, 9]"] ;
312 -> 313 ;
314 [label="X[0] <= 25.5\nentropy = 0.4912\nsamples = 28\nvalue = [3, 25]"] ;
312 -> 314 ;
315 [label="X[3] <= 0.5\nentropy = 1.0\nsamples = 4\nvalue = [2, 2]"] ;
314 -> 315 ;
316 [label="X[2] <= 11.7584\nentropy = 0.9183\nsamples = 3\nvalue = [2, 1]"] ;
315 -> 316 ;
317 [label="entropy = 0.0\nsamples = 1\nvalue = [1, 0]"] ;
316 -> 317 ;
318 [label="entropy = 1.0\nsamples = 2\nvalue = [1, 1]"] ;
316 -> 318 ;
319 [label="entropy = 0.0\nsamples = 1\nvalue = [0, 1]"] ;
315 -> 319 ;
320 [label="X[0] <= 37.0\nentropy = 0.2499\nsamples = 24\nvalue = [1, 23]"] ;
314 -> 320 ;
321 [label="entropy = 0.0\nsamples = 18\nvalue = [0, 18]"] ;
320 -> 321 ;
322 [label="X[0] <= 39.0\nentropy = 0.65\nsamples = 6\nvalue = [1, 5]"] ;
320 -> 322 ;
323 [label="entropy = 0.0\nsamples = 1\nvalue = [1, 0]"] ;
322 -> 323 ;
324 [label="entropy = 0.0\nsamples = 5\nvalue = [0, 5]"] ;
322 -> 324 ;
325 [label="entropy = 0.0\nsamples = 1\nvalue = [1, 0]"] ;
311 -> 325 ;
326 [label="X[2] <= 15.3729\nentropy = 0.9457\nsamples = 55\nvalue = [20, 35]"] ;
310 -> 326 ;
327 [label="X[4] <= 2.5\nentropy = 0.7793\nsamples = 13\nvalue = [10, 3]"] ;
326 -> 327 ;
328 [label="X[0] <= 16.0\nentropy = 0.5436\nsamples = 8\nvalue = [7, 1]"] ;
327 -> 328 ;
329 [label="X[0] <= 14.75\nentropy = 1.0\nsamples = 2\nvalue = [1, 1]"] ;
328 -> 329 ;
330 [label="entropy = 0.0\nsamples = 1\nvalue = [1, 0]"] ;
329 -> 330 ;
331 [label="entropy = 0.0\nsamples = 1\nvalue = [0, 1]"] ;
329 -> 331 ;
332 [label="entropy = 0.0\nsamples = 6\nvalue = [6, 0]"] ;
328 -> 332 ;
333 [label="X[0] <= 28.5\nentropy = 0.971\nsamples = 5\nvalue = [3, 2]"] ;
327 -> 333 ;
334 [label="X[2] <= 14.8729\nentropy = 0.8113\nsamples = 4\nvalue = [3, 1]"] ;
333 -> 334 ;
335 [label="X[0] <= 26.0\nentropy = 1.0\nsamples = 2\nvalue = [1, 1]"] ;
334 -> 335 ;
336 [label="entropy = 0.0\nsamples = 1\nvalue = [0, 1]"] ;
335 -> 336 ;
337 [label="entropy = 0.0\nsamples = 1\nvalue = [1, 0]"] ;
335 -> 337 ;
338 [label="entropy = 0.0\nsamples = 2\nvalue = [2, 0]"] ;
334 -> 338 ;
339 [label="entropy = 0.0\nsamples = 1\nvalue = [0, 1]"] ;
333 -> 339 ;
340 [label="X[0] <= 7.5\nentropy = 0.7919\nsamples = 42\nvalue = [10, 32]"] ;
326 -> 340 ;
341 [label="entropy = 0.0\nsamples = 7\nvalue = [0, 7]"] ;
340 -> 341 ;
342 [label="X[0] <= 27.5\nentropy = 0.8631\nsamples = 35\nvalue = [10, 25]"] ;
340 -> 342 ;
343 [label="X[0] <= 25.0\nentropy = 1.0\nsamples = 10\nvalue = [5, 5]"] ;
342 -> 343 ;
344 [label="X[0] <= 21.0\nentropy = 0.9544\nsamples = 8\nvalue = [3, 5]"] ;
343 -> 344 ;
345 [label="X[2] <= 18.75\nentropy = 0.971\nsamples = 5\nvalue = [3, 2]"] ;
344 -> 345 ;
346 [label="entropy = 0.0\nsamples = 2\nvalue = [2, 0]"] ;
345 -> 346 ;
347 [label="X[0] <= 11.5\nentropy = 0.9183\nsamples = 3\nvalue = [1, 2]"] ;
345 -> 347 ;
348 [label="entropy = 0.0\nsamples = 1\nvalue = [1, 0]"] ;
347 -> 348 ;
349 [label="entropy = 0.0\nsamples = 2\nvalue = [0, 2]"] ;
347 -> 349 ;
350 [label="entropy = 0.0\nsamples = 3\nvalue = [0, 3]"] ;
344 -> 350 ;
351 [label="entropy = 0.0\nsamples = 2\nvalue = [2, 0]"] ;
343 -> 351 ;
352 [label="X[4] <= 2.5\nentropy = 0.7219\nsamples = 25\nvalue = [5, 20]"] ;
342 -> 352 ;
353 [label="X[2] <= 17.7\nentropy = 0.3712\nsamples = 14\nvalue = [1, 13]"] ;
352 -> 353 ;
354 [label="entropy = 0.0\nsamples = 8\nvalue = [0, 8]"] ;
353 -> 354 ;
355 [label="X[2] <= 18.75\nentropy = 0.65\nsamples = 6\nvalue = [1, 5]"] ;
353 -> 355 ;
356 [label="entropy = 0.0\nsamples = 1\nvalue = [1, 0]"] ;
355 -> 356 ;
357 [label="entropy = 0.0\nsamples = 5\nvalue = [0, 5]"] ;
355 -> 357 ;
358 [label="X[2] <= 23.35\nentropy = 0.9457\nsamples = 11\nvalue = [4, 7]"] ;
352 -> 358 ;
359 [label="X[2] <= 20.2313\nentropy = 0.7642\nsamples = 9\nvalue = [2, 7]"] ;
358 -> 359 ;
360 [label="X[4] <= 3.5\nentropy = 0.9183\nsamples = 3\nvalue = [2, 1]"] ;
359 -> 360 ;
361 [label="entropy = 0.0\nsamples = 2\nvalue = [2, 0]"] ;
360 -> 361 ;
362 [label="entropy = 0.0\nsamples = 1\nvalue = [0, 1]"] ;
360 -> 362 ;
363 [label="entropy = 0.0\nsamples = 6\nvalue = [0, 6]"] ;
359 -> 363 ;
364 [label="entropy = 0.0\nsamples = 2\nvalue = [2, 0]"] ;
358 -> 364 ;
365 [label="X[0] <= 2.5\nentropy = 0.2453\nsamples = 123\nvalue = [5, 118]"] ;
263 -> 365 ;
366 [label="X[4] <= 3.5\nentropy = 1.0\nsamples = 2\nvalue = [1, 1]"] ;
365 -> 366 ;
367 [label="entropy = 0.0\nsamples = 1\nvalue = [0, 1]"] ;
366 -> 367 ;
368 [label="entropy = 0.0\nsamples = 1\nvalue = [1, 0]"] ;
366 -> 368 ;
369 [label="X[2] <= 28.8563\nentropy = 0.2095\nsamples = 121\nvalue = [4, 117]"] ;
365 -> 369 ;
370 [label="X[2] <= 28.2313\nentropy = 0.5159\nsamples = 26\nvalue = [3, 23]"] ;
369 -> 370 ;
371 [label="X[2] <= 26.125\nentropy = 0.4022\nsamples = 25\nvalue = [2, 23]"] ;
370 -> 371 ;
372 [label="X[4] <= 2.5\nentropy = 0.5665\nsamples = 15\nvalue = [2, 13]"] ;
371 -> 372 ;
373 [label="X[0] <= 43.0\nentropy = 0.3912\nsamples = 13\nvalue = [1, 12]"] ;
372 -> 373 ;
374 [label="entropy = 0.0\nsamples = 9\nvalue = [0, 9]"] ;
373 -> 374 ;
375 [label="X[0] <= 46.0\nentropy = 0.8113\nsamples = 4\nvalue = [1, 3]"] ;
373 -> 375 ;
376 [label="entropy = 0.0\nsamples = 1\nvalue = [1, 0]"] ;
375 -> 376 ;
377 [label="entropy = 0.0\nsamples = 3\nvalue = [0, 3]"] ;
375 -> 377 ;
378 [label="X[0] <= 29.5\nentropy = 1.0\nsamples = 2\nvalue = [1, 1]"] ;
372 -> 378 ;
379 [label="entropy = 0.0\nsamples = 1\nvalue = [1, 0]"] ;
378 -> 379 ;
380 [label="entropy = 0.0\nsamples = 1\nvalue = [0, 1]"] ;
378 -> 380 ;
381 [label="entropy = 0.0\nsamples = 10\nvalue = [0, 10]"] ;
371 -> 381 ;
382 [label="entropy = 0.0\nsamples = 1\nvalue = [1, 0]"] ;
370 -> 382 ;
383 [label="X[4] <= 3.5\nentropy = 0.0843\nsamples = 95\nvalue = [1, 94]"] ;
369 -> 383 ;
384 [label="entropy = 0.0\nsamples = 87\nvalue = [0, 87]"] ;
383 -> 384 ;
385 [label="X[2] <= 135.775\nentropy = 0.5436\nsamples = 8\nvalue = [1, 7]"] ;
383 -> 385 ;
386 [label="entropy = 0.0\nsamples = 7\nvalue = [0, 7]"] ;
385 -> 386 ;
387 [label="entropy = 0.0\nsamples = 1\nvalue = [1, 0]"] ;
385 -> 387 ;
388 [label="X[2] <= 165.9625\nentropy = 0.8454\nsamples = 33\nvalue = [24, 9]"] ;
262 -> 388 ;
389 [label="X[2] <= 19.9125\nentropy = 0.6632\nsamples = 29\nvalue = [24, 5]"] ;
388 -> 389 ;
390 [label="entropy = 0.0\nsamples = 2\nvalue = [0, 2]"] ;
389 -> 390 ;
391 [label="X[0] <= 51.0\nentropy = 0.5033\nsamples = 27\nvalue = [24, 3]"] ;
389 -> 391 ;
392 [label="X[2] <= 31.3312\nentropy = 0.3912\nsamples = 26\nvalue = [24, 2]"] ;
391 -> 392 ;
393 [label="entropy = 0.0\nsamples = 15\nvalue = [15, 0]"] ;
392 -> 393 ;
394 [label="X[2] <= 32.8812\nentropy = 0.684\nsamples = 11\nvalue = [9, 2]"] ;
392 -> 394 ;
395 [label="entropy = 0.0\nsamples = 2\nvalue = [0, 2]"] ;
394 -> 395 ;
396 [label="entropy = 0.0\nsamples = 9\nvalue = [9, 0]"] ;
394 -> 396 ;
397 [label="entropy = 0.0\nsamples = 1\nvalue = [0, 1]"] ;
391 -> 397 ;
398 [label="entropy = 0.0\nsamples = 4\nvalue = [0, 4]"] ;
388 -> 398 ;
}