digraph Tree {
node [shape=box] ;
0 [label="X[1] <= 0.5\ngini = 0.473\nsamples = 891\nvalue = [549, 342]"] ;
1 [label="X[0] <= 6.5\ngini = 0.3064\nsamples = 577\nvalue = [468, 109]"] ;
0 -> 1 [labeldistance=2.5, labelangle=45, headlabel="True"] ;
2 [label="X[2] <= 20.825\ngini = 0.4444\nsamples = 24\nvalue = [8, 16]"] ;
1 -> 2 ;
3 [label="gini = 0.0\nsamples = 8\nvalue = [0, 8]"] ;
2 -> 3 ;
4 [label="X[0] <= 0.96\ngini = 0.5\nsamples = 16\nvalue = [8, 8]"] ;
2 -> 4 ;
5 [label="gini = 0.0\nsamples = 2\nvalue = [0, 2]"] ;
4 -> 5 ;
6 [label="X[3] <= 1.5\ngini = 0.4898\nsamples = 14\nvalue = [8, 6]"] ;
4 -> 6 ;
7 [label="X[2] <= 39.3438\ngini = 0.5\nsamples = 12\nvalue = [6, 6]"] ;
6 -> 7 ;
8 [label="X[0] <= 3.5\ngini = 0.4688\nsamples = 8\nvalue = [3, 5]"] ;
7 -> 8 ;
9 [label="X[2] <= 23.5375\ngini = 0.2778\nsamples = 6\nvalue = [1, 5]"] ;
8 -> 9 ;
10 [label="gini = 0.0\nsamples = 1\nvalue = [1, 0]"] ;
9 -> 10 ;
11 [label="gini = 0.0\nsamples = 5\nvalue = [0, 5]"] ;
9 -> 11 ;
12 [label="gini = 0.0\nsamples = 2\nvalue = [2, 0]"] ;
8 -> 12 ;
13 [label="X[2] <= 64.3792\ngini = 0.375\nsamples = 4\nvalue = [3, 1]"] ;
7 -> 13 ;
14 [label="gini = 0.0\nsamples = 3\nvalue = [3, 0]"] ;
13 -> 14 ;
15 [label="gini = 0.0\nsamples = 1\nvalue = [0, 1]"] ;
13 -> 15 ;
16 [label="gini = 0.0\nsamples = 2\nvalue = [2, 0]"] ;
6 -> 16 ;
17 [label="X[2] <= 26.2687\ngini = 0.2798\nsamples = 553\nvalue = [460, 93]"] ;
1 -> 17 ;
18 [label="X[0] <= 13.5\ngini = 0.1941\nsamples = 404\nvalue = [360, 44]"] ;
17 -> 18 ;
19 [label="X[3] <= 0.5\ngini = 0.375\nsamples = 4\nvalue = [1, 3]"] ;
18 -> 19 ;
20 [label="gini = 0.0\nsamples = 2\nvalue = [0, 2]"] ;
19 -> 20 ;
21 [label="X[0] <= 11.5\ngini = 0.5\nsamples = 2\nvalue = [1, 1]"] ;
19 -> 21 ;
22 [label="gini = 0.0\nsamples = 1\nvalue = [1, 0]"] ;
21 -> 22 ;
23 [label="gini = 0.0\nsamples = 1\nvalue = [0, 1]"] ;
21 -> 23 ;
24 [label="X[0] <= 32.5\ngini = 0.184\nsamples = 400\nvalue = [359, 41]"] ;
18 -> 24 ;
25 [label="X[0] <= 30.75\ngini = 0.2091\nsamples = 295\nvalue = [260, 35]"] ;
24 -> 25 ;
26 [label="X[3] <= 0.5\ngini = 0.1869\nsamples = 278\nvalue = [249, 29]"] ;
25 -> 26 ;
27 [label="X[2] <= 11.0\ngini = 0.1482\nsamples = 211\nvalue = [194, 17]"] ;
26 -> 27 ;
28 [label="X[0] <= 27.5\ngini = 0.177\nsamples = 163\nvalue = [147, 16]"] ;
27 -> 28 ;
29 [label="X[0] <= 26.5\ngini = 0.2168\nsamples = 97\nvalue = [85, 12]"] ;
28 -> 29 ;
30 [label="X[2] <= 3.2479\ngini = 0.1748\nsamples = 93\nvalue = [84, 9]"] ;
29 -> 30 ;
31 [label="X[0] <= 22.0\ngini = 0.5\nsamples = 2\nvalue = [1, 1]"] ;
30 -> 31 ;
32 [label="gini = 0.0\nsamples = 1\nvalue = [1, 0]"] ;
31 -> 32 ;
33 [label="gini = 0.0\nsamples = 1\nvalue = [0, 1]"] ;
31 -> 33 ;
34 [label="X[0] <= 20.25\ngini = 0.1604\nsamples = 91\nvalue = [83, 8]"] ;
30 -> 34 ;
35 [label="X[2] <= 7.9104\ngini = 0.2235\nsamples = 39\nvalue = [34, 5]"] ;
34 -> 35 ;
36 [label="gini = 0.0\nsamples = 16\nvalue = [16, 0]"] ;
35 -> 36 ;
37 [label="X[2] <= 8.1042\ngini = 0.3403\nsamples = 23\nvalue = [18, 5]"] ;
35 -> 37 ;
38 [label="X[0] <= 18.5\ngini = 0.5\nsamples = 8\nvalue = [4, 4]"] ;
37 -> 38 ;
39 [label="X[0] <= 17.0\ngini = 0.4444\nsamples = 3\nvalue = [1, 2]"] ;
38 -> 39 ;
40 [label="gini = 0.5\nsamples = 2\nvalue = [1, 1]"] ;
39 -> 40 ;
41 [label="gini = 0.0\nsamples = 1\nvalue = [0, 1]"] ;
39 -> 41 ;
42 [label="X[0] <= 19.5\ngini = 0.48\nsamples = 5\nvalue = [3, 2]"] ;
38 -> 42 ;
43 [label="gini = 0.5\nsamples = 2\nvalue = [1, 1]"] ;
42 -> 43 ;
44 [label="X[2] <= 7.9875\ngini = 0.4444\nsamples = 3\nvalue = [2, 1]"] ;
42 -> 44 ;
45 [label="gini = 0.5\nsamples = 2\nvalue = [1, 1]"] ;
44 -> 45 ;
46 [label="gini = 0.0\nsamples = 1\nvalue = [1, 0]"] ;
44 -> 46 ;
47 [label="X[2] <= 10.3354\ngini = 0.1244\nsamples = 15\nvalue = [14, 1]"] ;
37 -> 47 ;
48 [label="gini = 0.0\nsamples = 12\nvalue = [12, 0]"] ;
47 -> 48 ;
49 [label="X[0] <= 17.5\ngini = 0.4444\nsamples = 3\nvalue = [2, 1]"] ;
47 -> 49 ;
50 [label="gini = 0.0\nsamples = 1\nvalue = [1, 0]"] ;
49 -> 50 ;
51 [label="gini = 0.5\nsamples = 2\nvalue = [1, 1]"] ;
49 -> 51 ;
52 [label="X[2] <= 7.7979\ngini = 0.1087\nsamples = 52\nvalue = [49, 3]"] ;
34 -> 52 ;
53 [label="X[2] <= 7.7125\ngini = 0.2449\nsamples = 21\nvalue = [18, 3]"] ;
52 -> 53 ;
54 [label="X[2] <= 7.1958\ngini = 0.1327\nsamples = 14\nvalue = [13, 1]"] ;
53 -> 54 ;
55 [label="X[2] <= 7.1333\ngini = 0.32\nsamples = 5\nvalue = [4, 1]"] ;
54 -> 55 ;
56 [label="gini = 0.0\nsamples = 4\nvalue = [4, 0]"] ;
55 -> 56 ;
57 [label="gini = 0.0\nsamples = 1\nvalue = [0, 1]"] ;
55 -> 57 ;
58 [label="gini = 0.0\nsamples = 9\nvalue = [9, 0]"] ;
54 -> 58 ;
59 [label="X[0] <= 21.5\ngini = 0.4082\nsamples = 7\nvalue = [5, 2]"] ;
53 -> 59 ;
60 [label="X[2] <= 7.7854\ngini = 0.5\nsamples = 2\nvalue = [1, 1]"] ;
59 -> 60 ;
61 [label="gini = 0.0\nsamples = 1\nvalue = [1, 0]"] ;
60 -> 61 ;
62 [label="gini = 0.0\nsamples = 1\nvalue = [0, 1]"] ;
60 -> 62 ;
63 [label="X[0] <= 24.5\ngini = 0.32\nsamples = 5\nvalue = [4, 1]"] ;
59 -> 63 ;
64 [label="gini = 0.0\nsamples = 2\nvalue = [2, 0]"] ;
63 -> 64 ;
65 [label="X[0] <= 25.5\ngini = 0.4444\nsamples = 3\nvalue = [2, 1]"] ;
63 -> 65 ;
66 [label="gini = 0.5\nsamples = 2\nvalue = [1, 1]"] ;
65 -> 66 ;
67 [label="gini = 0.0\nsamples = 1\nvalue = [1, 0]"] ;
65 -> 67 ;
68 [label="gini = 0.0\nsamples = 31\nvalue = [31, 0]"] ;
52 -> 68 ;
69 [label="X[2] <= 7.8458\ngini = 0.375\nsamples = 4\nvalue = [1, 3]"] ;
29 -> 69 ;
70 [label="gini = 0.0\nsamples = 2\nvalue = [0, 2]"] ;
69 -> 70 ;
71 [label="X[2] <= 8.2792\ngini = 0.5\nsamples = 2\nvalue = [1, 1]"] ;
69 -> 71 ;
72 [label="gini = 0.0\nsamples = 1\nvalue = [1, 0]"] ;
71 -> 72 ;
73 [label="gini = 0.0\nsamples = 1\nvalue = [0, 1]"] ;
71 -> 73 ;
74 [label="X[2] <= 8.0813\ngini = 0.1139\nsamples = 66\nvalue = [62, 4]"] ;
28 -> 74 ;
75 [label="X[2] <= 7.7854\ngini = 0.0357\nsamples = 55\nvalue = [54, 1]"] ;
74 -> 75 ;
76 [label="X[2] <= 7.6625\ngini = 0.0997\nsamples = 19\nvalue = [18, 1]"] ;
75 -> 76 ;
77 [label="gini = 0.0\nsamples = 16\nvalue = [16, 0]"] ;
76 -> 77 ;
78 [label="X[0] <= 28.5\ngini = 0.4444\nsamples = 3\nvalue = [2, 1]"] ;
76 -> 78 ;
79 [label="gini = 0.5\nsamples = 2\nvalue = [1, 1]"] ;
78 -> 79 ;
80 [label="gini = 0.0\nsamples = 1\nvalue = [1, 0]"] ;
78 -> 80 ;
81 [label="gini = 0.0\nsamples = 36\nvalue = [36, 0]"] ;
75 -> 81 ;
82 [label="X[2] <= 8.3875\ngini = 0.3967\nsamples = 11\nvalue = [8, 3]"] ;
74 -> 82 ;
83 [label="gini = 0.0\nsamples = 1\nvalue = [0, 1]"] ;
82 -> 83 ;
84 [label="X[0] <= 28.5\ngini = 0.32\nsamples = 10\nvalue = [8, 2]"] ;
82 -> 84 ;
85 [label="gini = 0.0\nsamples = 5\nvalue = [5, 0]"] ;
84 -> 85 ;
86 [label="X[2] <= 10.0\ngini = 0.48\nsamples = 5\nvalue = [3, 2]"] ;
84 -> 86 ;
87 [label="X[2] <= 9.4916\ngini = 0.4444\nsamples = 3\nvalue = [1, 2]"] ;
86 -> 87 ;
88 [label="gini = 0.0\nsamples = 1\nvalue = [1, 0]"] ;
87 -> 88 ;
89 [label="gini = 0.0\nsamples = 2\nvalue = [0, 2]"] ;
87 -> 89 ;
90 [label="gini = 0.0\nsamples = 2\nvalue = [2, 0]"] ;
86 -> 90 ;
91 [label="X[2] <= 13.25\ngini = 0.0408\nsamples = 48\nvalue = [47, 1]"] ;
27 -> 91 ;
92 [label="X[0] <= 27.5\ngini = 0.095\nsamples = 20\nvalue = [19, 1]"] ;
91 -> 92 ;
93 [label="gini = 0.0\nsamples = 15\nvalue = [15, 0]"] ;
92 -> 93 ;
94 [label="X[0] <= 29.0\ngini = 0.32\nsamples = 5\nvalue = [4, 1]"] ;
92 -> 94 ;
95 [label="gini = 0.5\nsamples = 2\nvalue = [1, 1]"] ;
94 -> 95 ;
96 [label="gini = 0.0\nsamples = 3\nvalue = [3, 0]"] ;
94 -> 96 ;
97 [label="gini = 0.0\nsamples = 28\nvalue = [28, 0]"] ;
91 -> 97 ;
98 [label="X[2] <= 15.1479\ngini = 0.2941\nsamples = 67\nvalue = [55, 12]"] ;
26 -> 98 ;
99 [label="X[0] <= 28.75\ngini = 0.2221\nsamples = 55\nvalue = [48, 7]"] ;
98 -> 99 ;
100 [label="X[0] <= 22.5\ngini = 0.1769\nsamples = 51\nvalue = [46, 5]"] ;
99 -> 100 ;
101 [label="X[0] <= 19.5\ngini = 0.375\nsamples = 8\nvalue = [6, 2]"] ;
100 -> 101 ;
102 [label="gini = 0.0\nsamples = 3\nvalue = [3, 0]"] ;
101 -> 102 ;
103 [label="X[2] <= 5.6187\ngini = 0.48\nsamples = 5\nvalue = [3, 2]"] ;
101 -> 103 ;
104 [label="gini = 0.0\nsamples = 1\nvalue = [1, 0]"] ;
103 -> 104 ;
105 [label="X[3] <= 1.5\ngini = 0.5\nsamples = 4\nvalue = [2, 2]"] ;
103 -> 105 ;
106 [label="X[2] <= 7.2271\ngini = 0.4444\nsamples = 3\nvalue = [1, 2]"] ;
105 -> 106 ;
107 [label="gini = 0.0\nsamples = 1\nvalue = [0, 1]"] ;
106 -> 107 ;
108 [label="X[0] <= 21.0\ngini = 0.5\nsamples = 2\nvalue = [1, 1]"] ;
106 -> 108 ;
109 [label="gini = 0.0\nsamples = 1\nvalue = [0, 1]"] ;
108 -> 109 ;
110 [label="gini = 0.0\nsamples = 1\nvalue = [1, 0]"] ;
108 -> 110 ;
111 [label="gini = 0.0\nsamples = 1\nvalue = [1, 0]"] ;
105 -> 111 ;
112 [label="X[2] <= 11.2875\ngini = 0.1298\nsamples = 43\nvalue = [40, 3]"] ;
100 -> 112 ;
113 [label="X[2] <= 7.2271\ngini = 0.1023\nsamples = 37\nvalue = [35, 2]"] ;
112 -> 113 ;
114 [label="gini = 0.0\nsamples = 8\nvalue = [8, 0]"] ;
113 -> 114 ;
115 [label="X[2] <= 7.4771\ngini = 0.1284\nsamples = 29\nvalue = [27, 2]"] ;
113 -> 115 ;
116 [label="X[0] <= 25.75\ngini = 0.2188\nsamples = 8\nvalue = [7, 1]"] ;
115 -> 116 ;
117 [label="gini = 0.0\nsamples = 1\nvalue = [1, 0]"] ;
116 -> 117 ;
118 [label="X[0] <= 28.25\ngini = 0.2449\nsamples = 7\nvalue = [6, 1]"] ;
116 -> 118 ;
119 [label="gini = 0.2778\nsamples = 6\nvalue = [5, 1]"] ;
118 -> 119 ;
120 [label="gini = 0.0\nsamples = 1\nvalue = [1, 0]"] ;
118 -> 120 ;
121 [label="X[2] <= 7.7459\ngini = 0.0907\nsamples = 21\nvalue = [20, 1]"] ;
115 -> 121 ;
122 [label="gini = 0.0\nsamples = 5\nvalue = [5, 0]"] ;
121 -> 122 ;
123 [label="X[2] <= 7.7896\ngini = 0.1172\nsamples = 16\nvalue = [15, 1]"] ;
121 -> 123 ;
124 [label="gini = 0.1653\nsamples = 11\nvalue = [10, 1]"] ;
123 -> 124 ;
125 [label="gini = 0.0\nsamples = 5\nvalue = [5, 0]"] ;
123 -> 125 ;
126 [label="X[2] <= 14.1583\ngini = 0.2778\nsamples = 6\nvalue = [5, 1]"] ;
112 -> 126 ;
127 [label="gini = 0.0\nsamples = 1\nvalue = [0, 1]"] ;
126 -> 127 ;
128 [label="gini = 0.0\nsamples = 5\nvalue = [5, 0]"] ;
126 -> 128 ;
129 [label="X[2] <= 7.4896\ngini = 0.5\nsamples = 4\nvalue = [2, 2]"] ;
99 -> 129 ;
130 [label="gini = 0.0\nsamples = 2\nvalue = [2, 0]"] ;
129 -> 130 ;
131 [label="gini = 0.0\nsamples = 2\nvalue = [0, 2]"] ;
129 -> 131 ;
132 [label="X[2] <= 15.3729\ngini = 0.4861\nsamples = 12\nvalue = [7, 5]"] ;
98 -> 132 ;
133 [label="gini = 0.0\nsamples = 2\nvalue = [0, 2]"] ;
132 -> 133 ;
134 [label="X[0] <= 27.0\ngini = 0.42\nsamples = 10\nvalue = [7, 3]"] ;
132 -> 134 ;
135 [label="gini = 0.0\nsamples = 2\nvalue = [0, 2]"] ;
134 -> 135 ;
136 [label="X[2] <= 22.4646\ngini = 0.2188\nsamples = 8\nvalue = [7, 1]"] ;
134 -> 136 ;
137 [label="gini = 0.0\nsamples = 4\nvalue = [4, 0]"] ;
136 -> 137 ;
138 [label="X[2] <= 23.625\ngini = 0.375\nsamples = 4\nvalue = [3, 1]"] ;
136 -> 138 ;
139 [label="gini = 0.0\nsamples = 1\nvalue = [0, 1]"] ;
138 -> 139 ;
140 [label="gini = 0.0\nsamples = 3\nvalue = [3, 0]"] ;
138 -> 140 ;
141 [label="X[2] <= 7.8146\ngini = 0.4567\nsamples = 17\nvalue = [11, 6]"] ;
25 -> 141 ;
142 [label="gini = 0.0\nsamples = 3\nvalue = [3, 0]"] ;
141 -> 142 ;
143 [label="X[2] <= 7.875\ngini = 0.4898\nsamples = 14\nvalue = [8, 6]"] ;
141 -> 143 ;
144 [label="gini = 0.0\nsamples = 1\nvalue = [0, 1]"] ;
143 -> 144 ;
145 [label="X[2] <= 7.9104\ngini = 0.4734\nsamples = 13\nvalue = [8, 5]"] ;
143 -> 145 ;
146 [label="gini = 0.0\nsamples = 1\nvalue = [1, 0]"] ;
145 -> 146 ;
147 [label="X[2] <= 8.2063\ngini = 0.4861\nsamples = 12\nvalue = [7, 5]"] ;
145 -> 147 ;
148 [label="X[0] <= 31.5\ngini = 0.48\nsamples = 5\nvalue = [2, 3]"] ;
147 -> 148 ;
149 [label="gini = 0.0\nsamples = 1\nvalue = [0, 1]"] ;
148 -> 149 ;
150 [label="X[2] <= 7.9875\ngini = 0.5\nsamples = 4\nvalue = [2, 2]"] ;
148 -> 150 ;
151 [label="gini = 0.4444\nsamples = 3\nvalue = [2, 1]"] ;
150 -> 151 ;
152 [label="gini = 0.0\nsamples = 1\nvalue = [0, 1]"] ;
150 -> 152 ;
153 [label="X[2] <= 11.75\ngini = 0.4082\nsamples = 7\nvalue = [5, 2]"] ;
147 -> 153 ;
154 [label="gini = 0.0\nsamples = 3\nvalue = [3, 0]"] ;
153 -> 154 ;
155 [label="X[2] <= 14.425\ngini = 0.5\nsamples = 4\nvalue = [2, 2]"] ;
153 -> 155 ;
156 [label="gini = 0.0\nsamples = 1\nvalue = [0, 1]"] ;
155 -> 156 ;
157 [label="X[2] <= 20.925\ngini = 0.4444\nsamples = 3\nvalue = [2, 1]"] ;
155 -> 157 ;
158 [label="gini = 0.0\nsamples = 1\nvalue = [1, 0]"] ;
157 -> 158 ;
159 [label="X[0] <= 31.5\ngini = 0.5\nsamples = 2\nvalue = [1, 1]"] ;
157 -> 159 ;
160 [label="gini = 0.0\nsamples = 1\nvalue = [1, 0]"] ;
159 -> 160 ;
161 [label="gini = 0.0\nsamples = 1\nvalue = [0, 1]"] ;
159 -> 161 ;
162 [label="X[2] <= 7.9104\ngini = 0.1078\nsamples = 105\nvalue = [99, 6]"] ;
24 -> 162 ;
163 [label="gini = 0.0\nsamples = 36\nvalue = [36, 0]"] ;
162 -> 163 ;
164 [label="X[2] <= 7.9875\ngini = 0.1588\nsamples = 69\nvalue = [63, 6]"] ;
162 -> 164 ;
165 [label="X[0] <= 38.0\ngini = 0.5\nsamples = 4\nvalue = [2, 2]"] ;
164 -> 165 ;
166 [label="gini = 0.0\nsamples = 1\nvalue = [1, 0]"] ;
165 -> 166 ;
167 [label="X[0] <= 41.5\ngini = 0.4444\nsamples = 3\nvalue = [1, 2]"] ;
165 -> 167 ;
168 [label="gini = 0.5\nsamples = 2\nvalue = [1, 1]"] ;
167 -> 168 ;
169 [label="gini = 0.0\nsamples = 1\nvalue = [0, 1]"] ;
167 -> 169 ;
170 [label="X[2] <= 13.25\ngini = 0.1155\nsamples = 65\nvalue = [61, 4]"] ;
164 -> 170 ;
171 [label="X[0] <= 59.5\ngini = 0.1884\nsamples = 38\nvalue = [34, 4]"] ;
170 -> 171 ;
172 [label="X[2] <= 12.9375\ngini = 0.1567\nsamples = 35\nvalue = [32, 3]"] ;
171 -> 172 ;
173 [label="X[0] <= 44.5\ngini = 0.0799\nsamples = 24\nvalue = [23, 1]"] ;
172 -> 173 ;
174 [label="gini = 0.0\nsamples = 17\nvalue = [17, 0]"] ;
173 -> 174 ;
175 [label="X[0] <= 46.0\ngini = 0.2449\nsamples = 7\nvalue = [6, 1]"] ;
173 -> 175 ;
176 [label="gini = 0.0\nsamples = 1\nvalue = [0, 1]"] ;
175 -> 176 ;
177 [label="gini = 0.0\nsamples = 6\nvalue = [6, 0]"] ;
175 -> 177 ;
178 [label="X[0] <= 45.0\ngini = 0.2975\nsamples = 11\nvalue = [9, 2]"] ;
172 -> 178 ;
179 [label="X[0] <= 40.5\ngini = 0.375\nsamples = 8\nvalue = [6, 2]"] ;
178 -> 179 ;
180 [label="X[0] <= 35.0\ngini = 0.2778\nsamples = 6\nvalue = [5, 1]"] ;
179 -> 180 ;
181 [label="gini = 0.4444\nsamples = 3\nvalue = [2, 1]"] ;
180 -> 181 ;
182 [label="gini = 0.0\nsamples = 3\nvalue = [3, 0]"] ;
180 -> 182 ;
183 [label="gini = 0.5\nsamples = 2\nvalue = [1, 1]"] ;
179 -> 183 ;
184 [label="gini = 0.0\nsamples = 3\nvalue = [3, 0]"] ;
178 -> 184 ;
185 [label="X[0] <= 64.0\ngini = 0.4444\nsamples = 3\nvalue = [2, 1]"] ;
171 -> 185 ;
186 [label="gini = 0.0\nsamples = 1\nvalue = [0, 1]"] ;
185 -> 186 ;
187 [label="gini = 0.0\nsamples = 2\nvalue = [2, 0]"] ;
185 -> 187 ;
188 [label="gini = 0.0\nsamples = 27\nvalue = [27, 0]"] ;
170 -> 188 ;
189 [label="X[2] <= 26.4688\ngini = 0.4414\nsamples = 149\nvalue = [100, 49]"] ;
17 -> 189 ;
190 [label="gini = 0.0\nsamples = 4\nvalue = [0, 4]"] ;
189 -> 190 ;
191 [label="X[2] <= 387.6646\ngini = 0.4281\nsamples = 145\nvalue = [100, 45]"] ;
189 -> 191 ;
192 [label="X[0] <= 22.5\ngini = 0.4206\nsamples = 143\nvalue = [100, 43]"] ;
191 -> 192 ;
193 [label="X[2] <= 109.8916\ngini = 0.2268\nsamples = 23\nvalue = [20, 3]"] ;
192 -> 193 ;
194 [label="X[0] <= 8.5\ngini = 0.0997\nsamples = 19\nvalue = [18, 1]"] ;
193 -> 194 ;
195 [label="X[3] <= 1.0\ngini = 0.375\nsamples = 4\nvalue = [3, 1]"] ;
194 -> 195 ;
196 [label="X[0] <= 7.5\ngini = 0.5\nsamples = 2\nvalue = [1, 1]"] ;
195 -> 196 ;
197 [label="gini = 0.0\nsamples = 1\nvalue = [1, 0]"] ;
196 -> 197 ;
198 [label="gini = 0.0\nsamples = 1\nvalue = [0, 1]"] ;
196 -> 198 ;
199 [label="gini = 0.0\nsamples = 2\nvalue = [2, 0]"] ;
195 -> 199 ;
200 [label="gini = 0.0\nsamples = 15\nvalue = [15, 0]"] ;
194 -> 200 ;
201 [label="X[2] <= 127.8167\ngini = 0.5\nsamples = 4\nvalue = [2, 2]"] ;
193 -> 201 ;
202 [label="gini = 0.0\nsamples = 2\nvalue = [0, 2]"] ;
201 -> 202 ;
203 [label="gini = 0.0\nsamples = 2\nvalue = [2, 0]"] ;
201 -> 203 ;
204 [label="X[0] <= 27.5\ngini = 0.4444\nsamples = 120\nvalue = [80, 40]"] ;
192 -> 204 ;
205 [label="X[2] <= 151.2896\ngini = 0.4734\nsamples = 13\nvalue = [5, 8]"] ;
204 -> 205 ;
206 [label="X[0] <= 25.5\ngini = 0.3967\nsamples = 11\nvalue = [3, 8]"] ;
205 -> 206 ;
207 [label="X[2] <= 48.5105\ngini = 0.5\nsamples = 6\nvalue = [3, 3]"] ;
206 -> 207 ;
208 [label="gini = 0.0\nsamples = 1\nvalue = [1, 0]"] ;
207 -> 208 ;
209 [label="X[2] <= 68.4292\ngini = 0.48\nsamples = 5\nvalue = [2, 3]"] ;
207 -> 209 ;
210 [label="gini = 0.0\nsamples = 2\nvalue = [0, 2]"] ;
209 -> 210 ;
211 [label="X[0] <= 24.5\ngini = 0.4444\nsamples = 3\nvalue = [2, 1]"] ;
209 -> 211 ;
212 [label="gini = 0.0\nsamples = 2\nvalue = [2, 0]"] ;
211 -> 212 ;
213 [label="gini = 0.0\nsamples = 1\nvalue = [0, 1]"] ;
211 -> 213 ;
214 [label="gini = 0.0\nsamples = 5\nvalue = [0, 5]"] ;
206 -> 214 ;
215 [label="gini = 0.0\nsamples = 2\nvalue = [2, 0]"] ;
205 -> 215 ;
216 [label="X[0] <= 53.0\ngini = 0.4193\nsamples = 107\nvalue = [75, 32]"] ;
204 -> 216 ;
217 [label="X[2] <= 26.775\ngini = 0.4496\nsamples = 85\nvalue = [56, 29]"] ;
216 -> 217 ;
218 [label="X[0] <= 46.5\ngini = 0.3457\nsamples = 9\nvalue = [2, 7]"] ;
217 -> 218 ;
219 [label="X[0] <= 40.0\ngini = 0.4082\nsamples = 7\nvalue = [2, 5]"] ;
218 -> 219 ;
220 [label="X[0] <= 31.0\ngini = 0.32\nsamples = 5\nvalue = [1, 4]"] ;
219 -> 220 ;
221 [label="gini = 0.4444\nsamples = 3\nvalue = [1, 2]"] ;
220 -> 221 ;
222 [label="gini = 0.0\nsamples = 2\nvalue = [0, 2]"] ;
220 -> 222 ;
223 [label="gini = 0.5\nsamples = 2\nvalue = [1, 1]"] ;
219 -> 223 ;
224 [label="gini = 0.0\nsamples = 2\nvalue = [0, 2]"] ;
218 -> 224 ;
225 [label="X[2] <= 29.1\ngini = 0.4114\nsamples = 76\nvalue = [54, 22]"] ;
217 -> 225 ;
226 [label="gini = 0.0\nsamples = 9\nvalue = [9, 0]"] ;
225 -> 226 ;
227 [label="X[2] <= 30.5979\ngini = 0.4411\nsamples = 67\nvalue = [45, 22]"] ;
225 -> 227 ;
228 [label="X[0] <= 28.5\ngini = 0.4688\nsamples = 8\nvalue = [3, 5]"] ;
227 -> 228 ;
229 [label="gini = 0.0\nsamples = 3\nvalue = [0, 3]"] ;
228 -> 229 ;
230 [label="X[2] <= 30.2854\ngini = 0.48\nsamples = 5\nvalue = [3, 2]"] ;
228 -> 230 ;
231 [label="gini = 0.0\nsamples = 3\nvalue = [3, 0]"] ;
230 -> 231 ;
232 [label="gini = 0.0\nsamples = 2\nvalue = [0, 2]"] ;
230 -> 232 ;
233 [label="X[0] <= 47.5\ngini = 0.4102\nsamples = 59\nvalue = [42, 17]"] ;
227 -> 233 ;
234 [label="X[0] <= 43.0\ngini = 0.3698\nsamples = 49\nvalue = [37, 12]"] ;
233 -> 234 ;
235 [label="X[0] <= 31.5\ngini = 0.414\nsamples = 41\nvalue = [29, 12]"] ;
234 -> 235 ;
236 [label="X[2] <= 61.8\ngini = 0.3018\nsamples = 27\nvalue = [22, 5]"] ;
235 -> 236 ;
237 [label="X[2] <= 54.2479\ngini = 0.3878\nsamples = 19\nvalue = [14, 5]"] ;
236 -> 237 ;
238 [label="X[2] <= 36.2521\ngini = 0.2449\nsamples = 14\nvalue = [12, 2]"] ;
237 -> 238 ;
239 [label="X[2] <= 35.25\ngini = 0.4444\nsamples = 6\nvalue = [4, 2]"] ;
238 -> 239 ;
240 [label="gini = 0.0\nsamples = 4\nvalue = [4, 0]"] ;
239 -> 240 ;
241 [label="gini = 0.0\nsamples = 2\nvalue = [0, 2]"] ;
239 -> 241 ;
242 [label="gini = 0.0\nsamples = 8\nvalue = [8, 0]"] ;
238 -> 242 ;
243 [label="X[0] <= 29.5\ngini = 0.48\nsamples = 5\nvalue = [2, 3]"] ;
237 -> 243 ;
244 [label="gini = 0.5\nsamples = 4\nvalue = [2, 2]"] ;
243 -> 244 ;
245 [label="gini = 0.0\nsamples = 1\nvalue = [0, 1]"] ;
243 -> 245 ;
246 [label="gini = 0.0\nsamples = 8\nvalue = [8, 0]"] ;
236 -> 246 ;
247 [label="X[2] <= 52.2771\ngini = 0.5\nsamples = 14\nvalue = [7, 7]"] ;
235 -> 247 ;
248 [label="X[2] <= 31.1375\ngini = 0.375\nsamples = 4\nvalue = [3, 1]"] ;
247 -> 248 ;
249 [label="gini = 0.0\nsamples = 1\nvalue = [0, 1]"] ;
248 -> 249 ;
250 [label="gini = 0.0\nsamples = 3\nvalue = [3, 0]"] ;
248 -> 250 ;
251 [label="X[2] <= 64.9979\ngini = 0.48\nsamples = 10\nvalue = [4, 6]"] ;
247 -> 251 ;
252 [label="X[0] <= 34.5\ngini = 0.32\nsamples = 5\nvalue = [1, 4]"] ;
251 -> 252 ;
253 [label="gini = 0.0\nsamples = 2\nvalue = [0, 2]"] ;
252 -> 253 ;
254 [label="X[2] <= 52.8271\ngini = 0.4444\nsamples = 3\nvalue = [1, 2]"] ;
252 -> 254 ;
255 [label="gini = 0.0\nsamples = 2\nvalue = [0, 2]"] ;
254 -> 255 ;
256 [label="gini = 0.0\nsamples = 1\nvalue = [1, 0]"] ;
254 -> 256 ;
257 [label="X[2] <= 84.425\ngini = 0.48\nsamples = 5\nvalue = [3, 2]"] ;
251 -> 257 ;
258 [label="gini = 0.0\nsamples = 2\nvalue = [2, 0]"] ;
257 -> 258 ;
259 [label="X[2] <= 136.7312\ngini = 0.4444\nsamples = 3\nvalue = [1, 2]"] ;
257 -> 259 ;
260 [label="gini = 0.0\nsamples = 2\nvalue = [0, 2]"] ;
259 -> 260 ;
261 [label="gini = 0.0\nsamples = 1\nvalue = [1, 0]"] ;
259 -> 261 ;
262 [label="gini = 0.0\nsamples = 8\nvalue = [8, 0]"] ;
234 -> 262 ;
263 [label="X[0] <= 49.5\ngini = 0.5\nsamples = 10\nvalue = [5, 5]"] ;
233 -> 263 ;
264 [label="X[2] <= 99.9938\ngini = 0.32\nsamples = 5\nvalue = [1, 4]"] ;
263 -> 264 ;
265 [label="gini = 0.0\nsamples = 4\nvalue = [0, 4]"] ;
264 -> 265 ;
266 [label="gini = 0.0\nsamples = 1\nvalue = [1, 0]"] ;
264 -> 266 ;
267 [label="X[2] <= 120.0375\ngini = 0.32\nsamples = 5\nvalue = [4, 1]"] ;
263 -> 267 ;
268 [label="gini = 0.0\nsamples = 4\nvalue = [4, 0]"] ;
267 -> 268 ;
269 [label="gini = 0.0\nsamples = 1\nvalue = [0, 1]"] ;
267 -> 269 ;
270 [label="X[0] <= 75.5\ngini = 0.2355\nsamples = 22\nvalue = [19, 3]"] ;
216 -> 270 ;
271 [label="X[3] <= 0.5\ngini = 0.1723\nsamples = 21\nvalue = [19, 2]"] ;
270 -> 271 ;
272 [label="gini = 0.0\nsamples = 13\nvalue = [13, 0]"] ;
271 -> 272 ;
273 [label="X[0] <= 62.5\ngini = 0.375\nsamples = 8\nvalue = [6, 2]"] ;
271 -> 273 ;
274 [label="X[2] <= 33.0979\ngini = 0.48\nsamples = 5\nvalue = [3, 2]"] ;
273 -> 274 ;
275 [label="gini = 0.0\nsamples = 2\nvalue = [2, 0]"] ;
274 -> 275 ;
276 [label="X[2] <= 96.2375\ngini = 0.4444\nsamples = 3\nvalue = [1, 2]"] ;
274 -> 276 ;
277 [label="gini = 0.0\nsamples = 2\nvalue = [0, 2]"] ;
276 -> 277 ;
278 [label="gini = 0.0\nsamples = 1\nvalue = [1, 0]"] ;
276 -> 278 ;
279 [label="gini = 0.0\nsamples = 3\nvalue = [3, 0]"] ;
273 -> 279 ;
280 [label="gini = 0.0\nsamples = 1\nvalue = [0, 1]"] ;
270 -> 280 ;
281 [label="gini = 0.0\nsamples = 2\nvalue = [0, 2]"] ;
191 -> 281 ;
282 [label="X[2] <= 48.2\ngini = 0.3828\nsamples = 314\nvalue = [81, 233]"] ;
0 -> 282 [labeldistance=2.5, labelangle=-45, headlabel="False"] ;
283 [label="X[2] <= 27.825\ngini = 0.4474\nsamples = 225\nvalue = [76, 149]"] ;
282 -> 283 ;
284 [label="X[2] <= 25.6979\ngini = 0.4285\nsamples = 193\nvalue = [60, 133]"] ;
283 -> 284 ;
285 [label="X[2] <= 24.075\ngini = 0.4534\nsamples = 167\nvalue = [58, 109]"] ;
284 -> 285 ;
286 [label="X[2] <= 10.4812\ngini = 0.4416\nsamples = 161\nvalue = [53, 108]"] ;
285 -> 286 ;
287 [label="X[2] <= 8.0396\ngini = 0.4885\nsamples = 66\nvalue = [28, 38]"] ;
286 -> 287 ;
288 [label="X[0] <= 29.25\ngini = 0.4248\nsamples = 49\nvalue = [15, 34]"] ;
287 -> 288 ;
289 [label="X[2] <= 6.9875\ngini = 0.3856\nsamples = 46\nvalue = [12, 34]"] ;
288 -> 289 ;
290 [label="gini = 0.0\nsamples = 1\nvalue = [1, 0]"] ;
289 -> 290 ;
291 [label="X[3] <= 0.5\ngini = 0.3694\nsamples = 45\nvalue = [11, 34]"] ;
289 -> 291 ;
292 [label="X[0] <= 27.5\ngini = 0.4753\nsamples = 18\nvalue = [7, 11]"] ;
291 -> 292 ;
293 [label="X[2] <= 7.7625\ngini = 0.4297\nsamples = 16\nvalue = [5, 11]"] ;
292 -> 293 ;
294 [label="gini = 0.0\nsamples = 5\nvalue = [0, 5]"] ;
293 -> 294 ;
295 [label="X[0] <= 25.5\ngini = 0.4959\nsamples = 11\nvalue = [5, 6]"] ;
293 -> 295 ;
296 [label="X[0] <= 22.5\ngini = 0.4688\nsamples = 8\nvalue = [5, 3]"] ;
295 -> 296 ;
297 [label="X[0] <= 18.5\ngini = 0.48\nsamples = 5\nvalue = [2, 3]"] ;
296 -> 297 ;
298 [label="X[2] <= 7.8896\ngini = 0.4444\nsamples = 3\nvalue = [2, 1]"] ;
297 -> 298 ;
299 [label="gini = 0.0\nsamples = 2\nvalue = [2, 0]"] ;
298 -> 299 ;
300 [label="gini = 0.0\nsamples = 1\nvalue = [0, 1]"] ;
298 -> 300 ;
301 [label="gini = 0.0\nsamples = 2\nvalue = [0, 2]"] ;
297 -> 301 ;
302 [label="gini = 0.0\nsamples = 3\nvalue = [3, 0]"] ;
296 -> 302 ;
303 [label="gini = 0.0\nsamples = 3\nvalue = [0, 3]"] ;
295 -> 303 ;
304 [label="gini = 0.0\nsamples = 2\nvalue = [2, 0]"] ;
292 -> 304 ;
305 [label="X[2] <= 7.7688\ngini = 0.2524\nsamples = 27\nvalue = [4, 23]"] ;
291 -> 305 ;
306 [label="X[0] <= 18.5\ngini = 0.32\nsamples = 20\nvalue = [4, 16]"] ;
305 -> 306 ;
307 [label="gini = 0.0\nsamples = 4\nvalue = [0, 4]"] ;
306 -> 307 ;
308 [label="X[0] <= 21.5\ngini = 0.375\nsamples = 16\nvalue = [4, 12]"] ;
306 -> 308 ;
309 [label="gini = 0.0\nsamples = 1\nvalue = [1, 0]"] ;
308 -> 309 ;
310 [label="X[3] <= 1.5\ngini = 0.32\nsamples = 15\nvalue = [3, 12]"] ;
308 -> 310 ;
311 [label="gini = 0.0\nsamples = 2\nvalue = [0, 2]"] ;
310 -> 311 ;
312 [label="X[2] <= 7.6813\ngini = 0.355\nsamples = 13\nvalue = [3, 10]"] ;
310 -> 312 ;
313 [label="gini = 0.0\nsamples = 1\nvalue = [1, 0]"] ;
312 -> 313 ;
314 [label="X[2] <= 7.7438\ngini = 0.2778\nsamples = 12\nvalue = [2, 10]"] ;
312 -> 314 ;
315 [label="gini = 0.0\nsamples = 2\nvalue = [0, 2]"] ;
314 -> 315 ;
316 [label="X[0] <= 25.0\ngini = 0.32\nsamples = 10\nvalue = [2, 8]"] ;
314 -> 316 ;
317 [label="gini = 0.0\nsamples = 1\nvalue = [0, 1]"] ;
316 -> 317 ;
318 [label="gini = 0.3457\nsamples = 9\nvalue = [2, 7]"] ;
316 -> 318 ;
319 [label="gini = 0.0\nsamples = 7\nvalue = [0, 7]"] ;
305 -> 319 ;
320 [label="gini = 0.0\nsamples = 3\nvalue = [3, 0]"] ;
288 -> 320 ;
321 [label="X[0] <= 19.0\ngini = 0.3599\nsamples = 17\nvalue = [13, 4]"] ;
287 -> 321 ;
322 [label="X[2] <= 10.1521\ngini = 0.4444\nsamples = 3\nvalue = [1, 2]"] ;
321 -> 322 ;
323 [label="gini = 0.0\nsamples = 2\nvalue = [0, 2]"] ;
322 -> 323 ;
324 [label="gini = 0.0\nsamples = 1\nvalue = [1, 0]"] ;
322 -> 324 ;
325 [label="X[0] <= 51.5\ngini = 0.2449\nsamples = 14\nvalue = [12, 2]"] ;
321 -> 325 ;
326 [label="X[0] <= 30.5\ngini = 0.142\nsamples = 13\nvalue = [12, 1]"] ;
325 -> 326 ;
327 [label="gini = 0.0\nsamples = 10\nvalue = [10, 0]"] ;
326 -> 327 ;
328 [label="X[0] <= 34.0\ngini = 0.4444\nsamples = 3\nvalue = [2, 1]"] ;
326 -> 328 ;
329 [label="gini = 0.0\nsamples = 1\nvalue = [0, 1]"] ;
328 -> 329 ;
330 [label="gini = 0.0\nsamples = 2\nvalue = [2, 0]"] ;
328 -> 330 ;
331 [label="gini = 0.0\nsamples = 1\nvalue = [0, 1]"] ;
325 -> 331 ;
332 [label="X[2] <= 14.1292\ngini = 0.3878\nsamples = 95\nvalue = [25, 70]"] ;
286 -> 332 ;
333 [label="X[0] <= 53.5\ngini = 0.1884\nsamples = 38\nvalue = [4, 34]"] ;
332 -> 333 ;
334 [label="X[0] <= 25.5\ngini = 0.149\nsamples = 37\nvalue = [3, 34]"] ;
333 -> 334 ;
335 [label="X[0] <= 21.5\ngini = 0.2604\nsamples = 13\nvalue = [2, 11]"] ;
334 -> 335 ;
336 [label="gini = 0.0\nsamples = 9\nvalue = [0, 9]"] ;
335 -> 336 ;
337 [label="X[0] <= 22.5\ngini = 0.5\nsamples = 4\nvalue = [2, 2]"] ;
335 -> 337 ;
338 [label="gini = 0.0\nsamples = 1\nvalue = [1, 0]"] ;
337 -> 338 ;
339 [label="X[2] <= 13.3959\ngini = 0.4444\nsamples = 3\nvalue = [1, 2]"] ;
337 -> 339 ;
340 [label="gini = 0.5\nsamples = 2\nvalue = [1, 1]"] ;
339 -> 340 ;
341 [label="gini = 0.0\nsamples = 1\nvalue = [0, 1]"] ;
339 -> 341 ;
342 [label="X[0] <= 37.0\ngini = 0.0799\nsamples = 24\nvalue = [1, 23]"] ;
334 -> 342 ;
343 [label="gini = 0.0\nsamples = 18\nvalue = [0, 18]"] ;
342 -> 343 ;
344 [label="X[0] <= 39.0\ngini = 0.2778\nsamples = 6\nvalue = [1, 5]"] ;
342 -> 344 ;
345 [label="gini = 0.0\nsamples = 1\nvalue = [1, 0]"] ;
344 -> 345 ;
346 [label="gini = 0.0\nsamples = 5\nvalue = [0, 5]"] ;
344 -> 346 ;
347 [label="gini = 0.0\nsamples = 1\nvalue = [1, 0]"] ;
333 -> 347 ;
348 [label="X[2] <= 15.3729\ngini = 0.4654\nsamples = 57\nvalue = [21, 36]"] ;
332 -> 348 ;
349 [label="X[2] <= 14.4791\ngini = 0.355\nsamples = 13\nvalue = [10, 3]"] ;
348 -> 349 ;
350 [label="X[0] <= 16.0\ngini = 0.2188\nsamples = 8\nvalue = [7, 1]"] ;
349 -> 350 ;
351 [label="X[0] <= 14.75\ngini = 0.5\nsamples = 2\nvalue = [1, 1]"] ;
350 -> 351 ;
352 [label="gini = 0.0\nsamples = 1\nvalue = [1, 0]"] ;
351 -> 352 ;
353 [label="gini = 0.0\nsamples = 1\nvalue = [0, 1]"] ;
351 -> 353 ;
354 [label="gini = 0.0\nsamples = 6\nvalue = [6, 0]"] ;
350 -> 354 ;
355 [label="X[0] <= 16.5\ngini = 0.48\nsamples = 5\nvalue = [3, 2]"] ;
349 -> 355 ;
356 [label="gini = 0.0\nsamples = 1\nvalue = [1, 0]"] ;
355 -> 356 ;
357 [label="X[0] <= 26.0\ngini = 0.5\nsamples = 4\nvalue = [2, 2]"] ;
355 -> 357 ;
358 [label="gini = 0.0\nsamples = 1\nvalue = [0, 1]"] ;
357 -> 358 ;
359 [label="X[3] <= 0.5\ngini = 0.4444\nsamples = 3\nvalue = [2, 1]"] ;
357 -> 359 ;
360 [label="gini = 0.0\nsamples = 1\nvalue = [1, 0]"] ;
359 -> 360 ;
361 [label="X[0] <= 28.5\ngini = 0.5\nsamples = 2\nvalue = [1, 1]"] ;
359 -> 361 ;
362 [label="gini = 0.0\nsamples = 1\nvalue = [1, 0]"] ;
361 -> 362 ;
363 [label="gini = 0.0\nsamples = 1\nvalue = [0, 1]"] ;
361 -> 363 ;
364 [label="X[3] <= 0.5\ngini = 0.375\nsamples = 44\nvalue = [11, 33]"] ;
348 -> 364 ;
365 [label="X[2] <= 17.6\ngini = 0.437\nsamples = 31\nvalue = [10, 21]"] ;
364 -> 365 ;
366 [label="X[0] <= 27.0\ngini = 0.18\nsamples = 10\nvalue = [1, 9]"] ;
365 -> 366 ;
367 [label="X[0] <= 25.0\ngini = 0.375\nsamples = 4\nvalue = [1, 3]"] ;
366 -> 367 ;
368 [label="gini = 0.0\nsamples = 3\nvalue = [0, 3]"] ;
367 -> 368 ;
369 [label="gini = 0.0\nsamples = 1\nvalue = [1, 0]"] ;
367 -> 369 ;
370 [label="gini = 0.0\nsamples = 6\nvalue = [0, 6]"] ;
366 -> 370 ;
371 [label="X[2] <= 18.375\ngini = 0.4898\nsamples = 21\nvalue = [9, 12]"] ;
365 -> 371 ;
372 [label="gini = 0.0\nsamples = 3\nvalue = [3, 0]"] ;
371 -> 372 ;
373 [label="X[0] <= 29.5\ngini = 0.4444\nsamples = 18\nvalue = [6, 12]"] ;
371 -> 373 ;
374 [label="X[0] <= 25.5\ngini = 0.5\nsamples = 10\nvalue = [5, 5]"] ;
373 -> 374 ;
375 [label="X[0] <= 3.5\ngini = 0.4082\nsamples = 7\nvalue = [2, 5]"] ;
374 -> 375 ;
376 [label="gini = 0.0\nsamples = 1\nvalue = [1, 0]"] ;
375 -> 376 ;
377 [label="X[2] <= 21.55\ngini = 0.2778\nsamples = 6\nvalue = [1, 5]"] ;
375 -> 377 ;
378 [label="X[2] <= 20.2875\ngini = 0.4444\nsamples = 3\nvalue = [1, 2]"] ;
377 -> 378 ;
379 [label="gini = 0.0\nsamples = 2\nvalue = [0, 2]"] ;
378 -> 379 ;
380 [label="gini = 0.0\nsamples = 1\nvalue = [1, 0]"] ;
378 -> 380 ;
381 [label="gini = 0.0\nsamples = 3\nvalue = [0, 3]"] ;
377 -> 381 ;
382 [label="gini = 0.0\nsamples = 3\nvalue = [3, 0]"] ;
374 -> 382 ;
383 [label="X[2] <= 20.2313\ngini = 0.2188\nsamples = 8\nvalue = [1, 7]"] ;
373 -> 383 ;
384 [label="X[2] <= 19.8563\ngini = 0.5\nsamples = 2\nvalue = [1, 1]"] ;
383 -> 384 ;
385 [label="gini = 0.0\nsamples = 1\nvalue = [0, 1]"] ;
384 -> 385 ;
386 [label="gini = 0.0\nsamples = 1\nvalue = [1, 0]"] ;
384 -> 386 ;
387 [label="gini = 0.0\nsamples = 6\nvalue = [0, 6]"] ;
383 -> 387 ;
388 [label="X[0] <= 30.0\ngini = 0.142\nsamples = 13\nvalue = [1, 12]"] ;
364 -> 388 ;
389 [label="gini = 0.0\nsamples = 12\nvalue = [0, 12]"] ;
388 -> 389 ;
390 [label="gini = 0.0\nsamples = 1\nvalue = [1, 0]"] ;
388 -> 390 ;
391 [label="X[3] <= 1.0\ngini = 0.2778\nsamples = 6\nvalue = [5, 1]"] ;
285 -> 391 ;
392 [label="gini = 0.0\nsamples = 5\nvalue = [5, 0]"] ;
391 -> 392 ;
393 [label="gini = 0.0\nsamples = 1\nvalue = [0, 1]"] ;
391 -> 393 ;
394 [label="X[2] <= 26.125\ngini = 0.142\nsamples = 26\nvalue = [2, 24]"] ;
284 -> 394 ;
395 [label="X[0] <= 25.5\ngini = 0.2188\nsamples = 16\nvalue = [2, 14]"] ;
394 -> 395 ;
396 [label="gini = 0.0\nsamples = 5\nvalue = [0, 5]"] ;
395 -> 396 ;
397 [label="X[0] <= 27.0\ngini = 0.2975\nsamples = 11\nvalue = [2, 9]"] ;
395 -> 397 ;
398 [label="gini = 0.0\nsamples = 1\nvalue = [1, 0]"] ;
397 -> 398 ;
399 [label="X[0] <= 43.0\ngini = 0.18\nsamples = 10\nvalue = [1, 9]"] ;
397 -> 399 ;
400 [label="gini = 0.0\nsamples = 6\nvalue = [0, 6]"] ;
399 -> 400 ;
401 [label="X[0] <= 46.0\ngini = 0.375\nsamples = 4\nvalue = [1, 3]"] ;
399 -> 401 ;
402 [label="gini = 0.0\nsamples = 1\nvalue = [1, 0]"] ;
401 -> 402 ;
403 [label="gini = 0.0\nsamples = 3\nvalue = [0, 3]"] ;
401 -> 403 ;
404 [label="gini = 0.0\nsamples = 10\nvalue = [0, 10]"] ;
394 -> 404 ;
405 [label="X[2] <= 28.8563\ngini = 0.5\nsamples = 32\nvalue = [16, 16]"] ;
283 -> 405 ;
406 [label="gini = 0.0\nsamples = 4\nvalue = [4, 0]"] ;
405 -> 406 ;
407 [label="X[0] <= 38.5\ngini = 0.4898\nsamples = 28\nvalue = [12, 16]"] ;
405 -> 407 ;
408 [label="X[0] <= 21.5\ngini = 0.4444\nsamples = 21\nvalue = [7, 14]"] ;
407 -> 408 ;
409 [label="X[3] <= 0.5\ngini = 0.5\nsamples = 14\nvalue = [7, 7]"] ;
408 -> 409 ;
410 [label="X[2] <= 31.3312\ngini = 0.4861\nsamples = 12\nvalue = [7, 5]"] ;
409 -> 410 ;
411 [label="X[2] <= 30.6375\ngini = 0.32\nsamples = 5\nvalue = [4, 1]"] ;
410 -> 411 ;
412 [label="gini = 0.0\nsamples = 1\nvalue = [0, 1]"] ;
411 -> 412 ;
413 [label="gini = 0.0\nsamples = 4\nvalue = [4, 0]"] ;
411 -> 413 ;
414 [label="X[0] <= 7.5\ngini = 0.4898\nsamples = 7\nvalue = [3, 4]"] ;
410 -> 414 ;
415 [label="gini = 0.0\nsamples = 3\nvalue = [0, 3]"] ;
414 -> 415 ;
416 [label="X[2] <= 36.8875\ngini = 0.375\nsamples = 4\nvalue = [3, 1]"] ;
414 -> 416 ;
417 [label="gini = 0.0\nsamples = 2\nvalue = [2, 0]"] ;
416 -> 417 ;
418 [label="X[2] <= 43.15\ngini = 0.5\nsamples = 2\nvalue = [1, 1]"] ;
416 -> 418 ;
419 [label="gini = 0.0\nsamples = 1\nvalue = [0, 1]"] ;
418 -> 419 ;
420 [label="gini = 0.0\nsamples = 1\nvalue = [1, 0]"] ;
418 -> 420 ;
421 [label="gini = 0.0\nsamples = 2\nvalue = [0, 2]"] ;
409 -> 421 ;
422 [label="gini = 0.0\nsamples = 7\nvalue = [0, 7]"] ;
408 -> 422 ;
423 [label="X[2] <= 36.6875\ngini = 0.4082\nsamples = 7\nvalue = [5, 2]"] ;
407 -> 423 ;
424 [label="gini = 0.0\nsamples = 3\nvalue = [3, 0]"] ;
423 -> 424 ;
425 [label="X[2] <= 39.6437\ngini = 0.5\nsamples = 4\nvalue = [2, 2]"] ;
423 -> 425 ;
426 [label="gini = 0.0\nsamples = 2\nvalue = [0, 2]"] ;
425 -> 426 ;
427 [label="gini = 0.0\nsamples = 2\nvalue = [2, 0]"] ;
425 -> 427 ;
428 [label="X[0] <= 8.0\ngini = 0.106\nsamples = 89\nvalue = [5, 84]"] ;
282 -> 428 ;
429 [label="gini = 0.0\nsamples = 1\nvalue = [1, 0]"] ;
428 -> 429 ;
430 [label="X[0] <= 28.5\ngini = 0.0868\nsamples = 88\nvalue = [4, 84]"] ;
428 -> 430 ;
431 [label="X[0] <= 24.5\ngini = 0.1884\nsamples = 38\nvalue = [4, 34]"] ;
430 -> 431 ;
432 [label="gini = 0.0\nsamples = 24\nvalue = [0, 24]"] ;
431 -> 432 ;
433 [label="X[3] <= 0.5\ngini = 0.4082\nsamples = 14\nvalue = [4, 10]"] ;
431 -> 433 ;
434 [label="X[2] <= 62.275\ngini = 0.4938\nsamples = 9\nvalue = [4, 5]"] ;
433 -> 434 ;
435 [label="gini = 0.0\nsamples = 3\nvalue = [0, 3]"] ;
434 -> 435 ;
436 [label="X[2] <= 74.2\ngini = 0.4444\nsamples = 6\nvalue = [4, 2]"] ;
434 -> 436 ;
437 [label="gini = 0.0\nsamples = 3\nvalue = [3, 0]"] ;
436 -> 437 ;
438 [label="X[0] <= 25.5\ngini = 0.4444\nsamples = 3\nvalue = [1, 2]"] ;
436 -> 438 ;
439 [label="gini = 0.0\nsamples = 1\nvalue = [1, 0]"] ;
438 -> 439 ;
440 [label="gini = 0.0\nsamples = 2\nvalue = [0, 2]"] ;
438 -> 440 ;
441 [label="gini = 0.0\nsamples = 5\nvalue = [0, 5]"] ;
433 -> 441 ;
442 [label="gini = 0.0\nsamples = 50\nvalue = [0, 50]"] ;
430 -> 442 ;
}